{"learner":{"attributes":{"best_iteration":"79","best_score":"0.04786211893716733","scikit_learn":"{\"_estimator_type\": \"classifier\"}"},"feature_names":["anchor_age","triage_acuity","triage_temperature","triage_heartrate","triage_resprate","triage_o2sat","triage_sbp","triage_dbp","triage_pain","temperature_min","temperature_max","temperature_mean","heartrate_min","heartrate_max","heartrate_mean","resprate_min","resprate_max","resprate_mean","o2sat_min","o2sat_max","o2sat_mean","sbp_min","sbp_max","sbp_mean","dbp_min","dbp_max","dbp_mean","med_acetaminophen","med_acetaminophen_325mg_tab","med_acetaminophen_500mg_tab","med_albuterol_0.083%_neb_soln","med_albuterol_0.083%_neb_soln_1neb","med_aluminum-magnesium_hy_30ml_udcup","med_aluminum-magnesium_hydrox.-simet","med_aspirin","med_aspirin_81mg_tab","med_azithromycin","med_cefepime","med_ceftriaxone","med_ciprofloxacin","med_diazepam","med_diphenhydramine","med_fentanyl","med_fentanyl_citrate","med_furosemide","med_gabapentin","med_haloperidol","med_heparin_sodium","med_hydromorphone_(d_1mg/1ml_1ml_syr","med_hydromorphone_(dilaudid)","med_ibuprofen","med_ibuprofen_600mg_tab","med_ipratropium_bromide_neb","med_ipratropium_bromide_neb_1neb","med_ketorolac","med_lidocaine_jelly_2%_(urojet)","med_lorazepam","med_lorazepam_2mg/1ml_1ml_syr","med_methylprednisolone_sodium_succ","med_metoprolol_tartrate","med_metronidazole_(flagyl)","med_morphine","med_morphine_sulfat_4mg/1ml_1ml_vial","med_morphine_sulfate","med_multivitamins","med_ondansetron","med_ondansetron_4mg/2ml_2ml_vial","med_oxycodone-acetaminophen","med_oxycodone_(immediate_rel_5mg_tab","med_oxycodone_(immediate_release)","med_pantoprazole_sodium","med_potassium_chloride","med_prednisone","med_propofol","med_tetanus-diphtox-acellular_pertuss","med_vancomyci_1000mg/200ml_200ml_bag","med_vancomycin"],"feature_types":["float","float","float","float","float","float","float","float","float","float","float","float","float","float","float","float","float","float","float","float","float","float","float","float","float","float","float","float","float","float","float","float","float","float","float","float","float","float","float","float","float","float","float","float","float","float","float","float","float","float","float","float","float","float","float","float","float","float","float","float","float","float","float","float","float","float","float","float","float","float","float","float","float","float","float","float","float"],"gradient_booster":{"model":{"cats":{"enc":[],"feature_segments":[],"sorted_idx":[]},"gbtree_model_param":{"num_parallel_tree":"1","num_trees":"130"},"iteration_indptr":[0,1,2,3,4,5,6,7,8,9,10,11,12,13,14,15,16,17,18,19,20,21,22,23,24,25,26,27,28,29,30,31,32,33,34,35,36,37,38,39,40,41,42,43,44,45,46,47,48,49,50,51,52,53,54,55,56,57,58,59,60,61,62,63,64,65,66,67,68,69,70,71,72,73,74,75,76,77,78,79,80,81,82,83,84,85,86,87,88,89,90,91,92,93,94,95,96,97,98,99,100,101,102,103,104,105,106,107,108,109,110,111,112,113,114,115,116,117,118,119,120,121,122,123,124,125,126,127,128,129,130],"tree_info":[0,0,0,0,0,0,0,0,0,0,0,0,0,0,0,0,0,0,0,0,0,0,0,0,0,0,0,0,0,0,0,0,0,0,0,0,0,0,0,0,0,0,0,0,0,0,0,0,0,0,0,0,0,0,0,0,0,0,0,0,0,0,0,0,0,0,0,0,0,0,0,0,0,0,0,0,0,0,0,0,0,0,0,0,0,0,0,0,0,0,0,0,0,0,0,0,0,0,0,0,0,0,0,0,0,0,0,0,0,0,0,0,0,0,0,0,0,0,0,0,0,0,0,0,0,0,0,0,0,0],"trees":[{"base_weights":[-5.344715E-3,-1.7212453E-1,4.437094E-1,2.3184821E-1,-3.4477732E-1,8.0609083E-1,2.9430845E-1,5.4625326E-1,4.66897E-2,-5.42686E-1,-7.344322E-3,8.192633E-1,-1.7725764E-2,-1.3971972E-1,5.3068376E-1,7.0174355E-3,1.9205647E-3,-8.758905E-4,5.157648E-3,2.1965327E-3,-6.16264E-3,6.0410798E-3,-6.058268E-4,-1.7013464E-2,8.290574E-3,4.8356545E-3,-4.065557E-3,2.1806809E-3,6.498825E-3],"categories":[],"categories_nodes":[],"categories_segments":[],"categories_sizes":[],"default_left":[0,0,1,1,1,1,1,1,1,1,0,0,0,0,1,0,0,0,0,0,0,0,0,0,0,0,0,0,0],"id":0,"left_children":[1,3,5,7,9,11,13,15,17,19,21,23,-1,25,27,-1,-1,-1,-1,-1,-1,-1,-1,-1,-1,-1,-1,-1,-1],"loss_changes":[4.0579077E3,2.7561958E3,7.9282715E2,6.880633E2,1.8482507E3,1.4734131E2,1.0669756E3,2.4020764E2,4.6975754E2,9.793574E2,3.328224E2,1.0712402E2,0E0,6.098851E2,2.496919E2,0E0,0E0,0E0,0E0,0E0,0E0,0E0,0E0,0E0,0E0,0E0,0E0,0E0,0E0],"parents":[2147483647,0,0,1,1,2,2,3,3,4,4,5,5,6,6,7,7,8,8,9,9,10,10,11,11,13,13,14,14],"right_children":[2,4,6,8,10,12,14,16,18,20,22,24,-1,26,28,-1,-1,-1,-1,-1,-1,-1,-1,-1,-1,-1,-1,-1,-1],"split_conditions":[1.89E1,9.725E1,9.5E1,5.8E1,6.3E1,2.07E2,5.7E1,1.43E2,7.7E1,5.85E1,1.13E2,5.7666668E1,-1.7725764E-2,6.9333336E1,7.375E1,7.0174355E-3,1.9205647E-3,-8.758905E-4,5.157648E-3,2.1965327E-3,-6.16264E-3,6.0410798E-3,-6.058268E-4,-1.7013464E-2,8.290574E-3,4.8356545E-3,-4.065557E-3,2.1806809E-3,6.498825E-3],"split_indices":[17,20,5,24,0,22,0,22,0,26,22,14,0,26,14,0,0,0,0,0,0,0,0,0,0,0,0,0,0],"split_type":[0,0,0,0,0,0,0,0,0,0,0,0,0,0,0,0,0,0,0,0,0,0,0,0,0,0,0,0,0],"sum_hessian":[5.4182207E4,3.9511133E4,1.4671073E4,1.1828453E4,2.768268E4,4.278301E3,1.0392772E4,4.3806567E3,7.4477964E3,1.7446125E4,1.0236553E4,4.258301E3,2E1,3.6631492E3,6.729623E3,3.0409238E3,1.3397332E3,5.7898677E3,1.657929E3,1.5340746E3,1.5912051E4,8.1673413E2,9.419819E3,1.475E1,4.243551E3,1.0965098E3,2.5666396E3,1.8615342E3,4.868089E3],"tree_param":{"num_deleted":"0","num_feature":"77","num_nodes":"29","size_leaf_vector":"1"}},{"base_weights":[-1.2443105E-2,-1.8385606E-1,4.06708E-1,-2.919169E-1,3.102311E-1,6.457095E-1,1.3183092E-1,1.2474168E-1,-4.188162E-1,2.0889103E-1,6.374285E-1,7.328268E-1,-0E0,-4.2819932E-1,3.985921E-1,3.189264E-3,-1.7512217E-3,-8.738517E-3,-3.0541553E-3,1.3058376E-3,7.489671E-3,7.126837E-3,-1.2445497E-2,4.961284E-3,8.398215E-3,-1.917921E-2,1.1830262E-3,3.6700364E-4,-7.975832E-3,1.7701522E-3,5.6186276E-3],"categories":[],"categories_nodes":[],"categories_segments":[],"categories_sizes":[],"default_left":[0,1,1,0,0,1,1,0,1,0,0,0,0,1,1,0,0,0,0,0,0,0,0,0,0,0,0,0,0,0,0],"id":1,"left_children":[1,3,5,7,9,11,13,15,17,19,21,23,25,27,29,-1,-1,-1,-1,-1,-1,-1,-1,-1,-1,-1,-1,-1,-1,-1,-1],"loss_changes":[3.896282E3,2.0553643E3,1.0330762E3,1.6705642E3,2.2791876E2,4.7414624E2,1.0945957E3,4.2964853E2,1.2478447E3,2.2218915E2,2.3211188E2,1.8567993E2,2.2932452E2,4.0662198E2,1.7863507E2,0E0,0E0,0E0,0E0,0E0,0E0,0E0,0E0,0E0,0E0,0E0,0E0,0E0,0E0,0E0,0E0],"parents":[2147483647,0,0,1,1,2,2,3,3,4,4,5,5,6,6,7,7,8,8,9,9,10,10,11,11,12,12,13,13,14,14],"right_children":[2,4,6,8,10,12,14,16,18,20,22,24,26,28,30,-1,-1,-1,-1,-1,-1,-1,-1,-1,-1,-1,-1,-1,-1,-1,-1],"split_conditions":[1.8666666E1,7.7E1,9.79E1,9.6E1,9.2E1,7.3E1,5.3E1,1.44E2,3.6E1,9.93E1,1.01E2,9E1,7.4E1,7.6E1,7.9666664E1,3.189264E-3,-1.7512217E-3,-8.738517E-3,-3.0541553E-3,1.3058376E-3,7.489671E-3,7.126837E-3,-1.2445497E-2,4.961284E-3,8.398215E-3,-1.917921E-2,1.1830262E-3,3.6700364E-4,-7.975832E-3,1.7701522E-3,5.6186276E-3],"split_indices":[17,0,5,18,3,24,0,22,0,10,25,3,7,7,14,0,0,0,0,0,0,0,0,0,0,0,0,0,0,0,0],"split_type":[0,0,0,0,0,0,0,0,0,0,0,0,0,0,0,0,0,0,0,0,0,0,0,0,0,0,0,0,0,0,0],"sum_hessian":[5.4228582E4,3.8491066E4,1.5737516E4,3.1585834E4,6.905234E3,8.414712E3,7.322803E3,7.372214E3,2.421362E4,5.277128E3,1.6281062E3,7.415423E3,9.992893E2,2.3610752E3,4.961728E3,4.476528E3,2.895686E3,4.8260825E3,1.9387537E4,4.612659E3,6.644684E2,1.5672117E3,6.089456E1,2.3149053E3,5.100518E3,5.674945E1,9.4253986E2,1.0449786E3,1.3160966E3,2.1093682E3,2.8523596E3],"tree_param":{"num_deleted":"0","num_feature":"77","num_nodes":"31","size_leaf_vector":"1"}},{"base_weights":[5.306881E-3,-1.7288539E-1,4.3241063E-1,9.658223E-2,-3.3368486E-1,6.0732096E-1,3.585008E-2,-1.308966E-1,2.9968628E-1,6.712994E-2,-4.2535257E-1,7.1947205E-1,3.1511444E-1,-3.0813268E-1,3.8104677E-1,7.550255E-4,-4.159284E-3,4.804204E-3,3.6141794E-4,2.61555E-3,-2.384543E-3,-3.0731224E-3,-6.265394E-3,8.216419E-3,4.306145E-3,3.4940136E-3,-1.8953346E-2,-1.2814996E-3,-1.0757992E-2,4.3165307E-3,-9.82114E-3],"categories":[],"categories_nodes":[],"categories_segments":[],"categories_sizes":[],"default_left":[0,1,1,0,1,1,1,1,1,1,0,1,0,1,0,0,0,0,0,0,0,0,0,0,0,0,0,0,0,0,0],"id":2,"left_children":[1,3,5,7,9,11,13,15,17,19,21,23,25,27,29,-1,-1,-1,-1,-1,-1,-1,-1,-1,-1,-1,-1,-1,-1,-1,-1],"loss_changes":[4.1592607E3,1.6710284E3,1.1152954E3,6.6597546E2,8.877605E2,3.6433203E2,5.854999E2,4.002016E2,3.6217828E2,2.672098E2,4.6551953E2,2.359917E2,2.3488611E2,3.395343E2,1.7014719E2,0E0,0E0,0E0,0E0,0E0,0E0,0E0,0E0,0E0,0E0,0E0,0E0,0E0,0E0,0E0,0E0],"parents":[2147483647,0,0,1,1,2,2,3,3,4,4,5,5,6,6,7,7,8,8,9,9,10,10,11,11,12,12,13,13,14,14],"right_children":[2,4,6,8,10,12,14,16,18,20,22,24,26,28,30,-1,-1,-1,-1,-1,-1,-1,-1,-1,-1,-1,-1,-1,-1,-1,-1],"split_conditions":[1.8666666E1,7E1,3E0,8.1E1,9.7E1,7.425E1,2.1E1,4E0,6.7E1,9.9E1,8.6E1,7.2E1,1E0,8.8E1,1.03E2,7.550255E-4,-4.159284E-3,4.804204E-3,3.6141794E-4,2.61555E-3,-2.384543E-3,-3.0731224E-3,-6.265394E-3,8.216419E-3,4.306145E-3,3.4940136E-3,-1.8953346E-2,-1.2814996E-3,-1.0757992E-2,4.3165307E-3,-9.82114E-3],"split_indices":[17,7,1,3,5,26,16,8,26,19,7,7,29,7,12,0,0,0,0,0,0,0,0,0,0,0,0,0,0,0,0],"split_type":[0,0,0,0,0,0,0,0,0,0,0,0,0,0,0,0,0,0,0,0,0,0,0,0,0,0,0,0,0,0,0],"sum_hessian":[5.4643098E4,3.8555977E4,1.6087118E4,1.440712E4,2.4148857E4,1.116084E4,4.9262783E3,6.793788E3,7.6133315E3,4.492991E3,1.9655867E4,8.060726E3,3.100114E3,2.4661343E3,2.460144E3,3.9392405E3,2.8545476E3,4.5129736E3,3.100358E3,2.7480996E3,1.7448916E3,1.2394053E4,7.2618135E3,5.949291E3,2.1114353E3,3.0548655E3,4.5248634E1,2.0006986E3,4.654358E2,2.3741074E3,8.60366E1],"tree_param":{"num_deleted":"0","num_feature":"77","num_nodes":"31","size_leaf_vector":"1"}},{"base_weights":[-1.7286038E-2,-2.7104616E-1,2.952789E-1,8.0419675E-2,-5.0485E-1,1.2162229E-1,6.3804734E-1,5.150806E-1,-1.0059921E-1,2.3531497E-2,-6.2602675E-1,3.7950447E-1,-3.4206714E-2,5.734968E-1,1.0097835E0,3.6445945E-3,1.2601632E-2,5.8968416E-3,-2.3583032E-3,-2.5388114E-3,5.8425437E-3,-1.0335096E-2,-4.7400184E-3,7.2846585E-3,2.3570857E-3,7.2133844E-3,-8.615929E-4,4.448311E-3,7.987126E-3,1.0397547E-2,-1.646237E-2],"categories":[],"categories_nodes":[],"categories_segments":[],"categories_sizes":[],"default_left":[1,1,0,0,1,1,0,1,1,1,1,1,1,1,1,0,0,0,0,0,0,0,0,0,0,0,0,0,0,0,0],"id":3,"left_children":[1,3,5,7,9,11,13,15,17,19,21,23,25,27,29,-1,-1,-1,-1,-1,-1,-1,-1,-1,-1,-1,-1,-1,-1,-1,-1],"loss_changes":[4.27497E3,2.445094E3,1.4365283E3,9.3558295E2,1.1445981E3,6.4466095E2,1.920586E2,3.8980267E2,7.8311865E2,5.191555E2,8.9793945E2,3.0185266E2,3.9175256E2,1.986836E2,9.803845E1,0E0,0E0,0E0,0E0,0E0,0E0,0E0,0E0,0E0,0E0,0E0,0E0,0E0,0E0,0E0,0E0],"parents":[2147483647,0,0,1,1,2,2,3,3,4,4,5,5,6,6,7,7,8,8,9,9,10,10,11,11,12,12,13,13,14,14],"right_children":[2,4,6,8,10,12,14,16,18,20,22,24,26,28,30,-1,-1,-1,-1,-1,-1,-1,-1,-1,-1,-1,-1,-1,-1,-1,-1],"split_conditions":[6.3E1,9.7625E1,1.88E1,6.7666664E1,1.11E2,1.27E2,1E0,1.17E2,9.4E1,9.1333336E1,3.6E1,9.6E1,5.3E1,9.81E1,1.78E2,3.6445945E-3,1.2601632E-2,5.8968416E-3,-2.3583032E-3,-2.5388114E-3,5.8425437E-3,-1.0335096E-2,-4.7400184E-3,7.2846585E-3,2.3570857E-3,7.2133844E-3,-8.615929E-4,4.448311E-3,7.987126E-3,1.0397547E-2,-1.646237E-2],"split_indices":[0,20,17,26,6,6,76,13,5,14,0,5,26,9,6,0,0,0,0,0,0,0,0,0,0,0,0,0,0,0,0],"split_type":[0,0,0,0,0,0,0,0,0,0,0,0,0,0,0,0,0,0,0,0,0,0,0,0,0,0,0,0,0,0,0],"sum_hessian":[5.3893883E4,2.974691E4,2.414697E4,1.1882126E4,1.7864785E4,1.603088E4,8.1160913E3,3.4940583E3,8.388068E3,3.3314822E3,1.4533303E4,6.0395483E3,9.991332E3,6.921905E3,1.1941864E3,2.910093E3,5.8396533E2,1.3717733E3,7.0162944E3,2.2283413E3,1.103141E3,3.9439321E3,1.058937E4,1.7580521E3,4.281496E3,6.399233E2,9.351408E3,4.4118223E3,2.5100825E3,1.182437E3,1.1749391E1],"tree_param":{"num_deleted":"0","num_feature":"77","num_nodes":"31","size_leaf_vector":"1"}},{"base_weights":[8.784453E-3,-1.809933E-1,3.949975E-1,1.1779881E-1,-3.4296703E-1,6.6297525E-1,1.9796923E-1,-9.869373E-2,3.166302E-1,9.821379E-2,-4.4505784E-1,9.6285397E-1,5.8594364E-1,-1.1399397E-1,3.8127398E-1,7.1661226E-3,-1.4709939E-3,5.9587685E-3,1.2898247E-3,-9.864784E-4,3.4616073E-3,-5.0633526E-3,-2.2631387E-4,-1.8882501E-3,1.057326E-2,7.72291E-3,4.59299E-3,-4.0475293E-3,8.266039E-4,4.86374E-3,4.8593347E-4],"categories":[],"categories_nodes":[],"categories_segments":[],"categories_sizes":[],"default_left":[0,1,1,0,1,0,1,0,1,1,1,0,1,1,1,0,0,0,0,0,0,0,0,0,0,0,0,0,0,0,0],"id":4,"left_children":[1,3,5,7,9,11,13,15,17,19,21,23,25,27,29,-1,-1,-1,-1,-1,-1,-1,-1,-1,-1,-1,-1,-1,-1,-1,-1],"loss_changes":[4.0082073E3,1.7747406E3,9.5025464E2,5.550536E2,1.071429E3,1.7361768E2,5.9444434E2,2.431084E2,3.512987E2,2.1841492E2,4.993506E2,1.7034436E2,1.4154102E2,2.2022119E2,2.2831122E2,0E0,0E0,0E0,0E0,0E0,0E0,0E0,0E0,0E0,0E0,0E0,0E0,0E0,0E0,0E0,0E0],"parents":[2147483647,0,0,1,1,2,2,3,3,4,4,5,5,6,6,7,7,8,8,9,9,10,10,11,11,12,12,13,13,14,14],"right_children":[2,4,6,8,10,12,14,16,18,20,22,24,26,28,30,-1,-1,-1,-1,-1,-1,-1,-1,-1,-1,-1,-1,-1,-1,-1,-1],"split_conditions":[1.825E1,6.9E1,6.7E1,8.1E1,9.7E1,9.6E1,2.1E1,9.6E1,6.175E1,8.4E1,1.49E2,9.75E1,9.78E1,7.214286E1,9.92E1,7.1661226E-3,-1.4709939E-3,5.9587685E-3,1.2898247E-3,-9.864784E-4,3.4616073E-3,-5.0633526E-3,-2.2631387E-4,-1.8882501E-3,1.057326E-2,7.72291E-3,4.59299E-3,-4.0475293E-3,8.266039E-4,4.86374E-3,4.8593347E-4],"split_indices":[17,7,7,3,5,5,16,19,26,14,21,9,10,14,5,0,0,0,0,0,0,0,0,0,0,0,0,0,0,0,0],"split_type":[0,0,0,0,0,0,0,0,0,0,0,0,0,0,0,0,0,0,0,0,0,0,0,0,0,0,0,0,0,0,0],"sum_hessian":[5.4679348E4,3.6662543E4,1.8016803E4,1.28860625E4,2.377648E4,7.629768E3,1.0387035E4,6.1671235E3,6.718939E3,4.4662144E3,1.9310266E4,1.5519911E3,6.077777E3,3.8426301E3,6.544405E3,3.429238E2,5.8241997E3,2.696492E3,4.0224468E3,2.487998E3,1.9782163E3,1.6861555E4,2.4487122E3,1.1670415E2,1.435287E3,2.4519053E3,3.6258716E3,1.5515657E3,2.2910645E3,4.970273E3,1.574132E3],"tree_param":{"num_deleted":"0","num_feature":"77","num_nodes":"31","size_leaf_vector":"1"}},{"base_weights":[9.567416E-3,-1.6912286E-1,4.3639946E-1,1.22623675E-1,-3.289877E-1,6.751108E-1,1.555594E-1,-9.611965E-2,2.9235563E-1,-4.8131892E-1,-2.1276712E-2,7.8856736E-1,4.0044957E-1,-2.9264972E-1,3.8111737E-1,5.084059E-3,-1.8511049E-3,6.963147E-3,1.9064541E-3,2.0031171E-4,-5.610416E-3,7.540382E-3,-9.489419E-4,7.096725E-3,1.15721105E-2,6.57472E-5,6.2359134E-3,-8.115114E-3,6.7346304E-4,1.1681254E-3,5.8271387E-3],"categories":[],"categories_nodes":[],"categories_segments":[],"categories_sizes":[],"default_left":[0,1,1,1,1,1,1,0,0,0,0,0,0,1,1,0,0,0,0,0,0,0,0,0,0,0,0,0,0,0,0],"id":5,"left_children":[1,3,5,7,9,11,13,15,17,19,21,23,25,27,29,-1,-1,-1,-1,-1,-1,-1,-1,-1,-1,-1,-1,-1,-1,-1,-1],"loss_changes":[4.1674824E3,1.7964915E3,1.0799827E3,5.0637946E2,1.1657979E3,2.6971973E2,7.497766E2,3.2022864E2,3.1435382E2,6.656763E2,4.6998563E2,1.7570386E2,2.2382397E2,4.6435217E2,2.620572E2,0E0,0E0,0E0,0E0,0E0,0E0,0E0,0E0,0E0,0E0,0E0,0E0,0E0,0E0,0E0,0E0],"parents":[2147483647,0,0,1,1,2,2,3,3,4,4,5,5,6,6,7,7,8,8,9,9,10,10,11,11,12,12,13,13,14,14],"right_children":[2,4,6,8,10,12,14,16,18,20,22,24,26,28,30,-1,-1,-1,-1,-1,-1,-1,-1,-1,-1,-1,-1,-1,-1,-1,-1],"split_conditions":[1.8666666E1,6.9E1,9.79E1,7E1,6.3E1,7.25E1,5.3E1,9.6E1,6.1E1,9.73E1,6.4E1,1E0,1.43E2,9.82E1,7.4E1,5.084059E-3,-1.8511049E-3,6.963147E-3,1.9064541E-3,2.0031171E-4,-5.610416E-3,7.540382E-3,-9.489419E-4,7.096725E-3,1.15721105E-2,6.57472E-5,6.2359134E-3,-8.115114E-3,6.7346304E-4,1.1681254E-3,5.8271387E-3],"split_indices":[17,7,5,12,0,26,0,5,25,19,0,76,6,10,12,0,0,0,0,0,0,0,0,0,0,0,0,0,0,0,0],"split_type":[0,0,0,0,0,0,0,0,0,0,0,0,0,0,0,0,0,0,0,0,0,0,0,0,0,0,0,0,0,0,0],"sum_hessian":[5.4633207E4,3.851009E4,1.6123117E4,1.3630047E4,2.4880045E4,8.711801E3,7.4113164E3,5.953022E3,7.6770254E3,1.6638725E4,8.241319E3,6.159899E3,2.5519023E3,2.4794138E3,4.931903E3,7.6123016E2,5.1917915E3,1.5398262E3,6.137199E3,2.2813044E3,1.4357421E4,7.1188745E2,7.5294316E3,5.0810474E3,1.0788513E3,9.252512E2,1.626651E3,1.015723E3,1.4636907E3,2.137558E3,2.7943445E3],"tree_param":{"num_deleted":"0","num_feature":"77","num_nodes":"31","size_leaf_vector":"1"}},{"base_weights":[-9.402011E-3,-1.8902808E-1,3.8044912E-1,2.1629126E-1,-3.665161E-1,6.019596E-1,1.3128407E-1,5.2022654E-1,4.389583E-2,2.2126865E-1,-4.507287E-1,7.7958316E-1,3.976155E-1,1.3938607E-3,5.689382E-1,2.2566712E-3,7.3263953E-3,4.106797E-3,-1.0450613E-3,2.1499472E-4,6.9276164E-3,-2.5949237E-4,-5.148564E-3,-7.525334E-3,8.02036E-3,1.8442358E-3,6.8862825E-3,2.5891555E-3,-1.8877969E-3,6.00486E-3,-1.8038735E-2],"categories":[],"categories_nodes":[],"categories_segments":[],"categories_sizes":[],"default_left":[0,0,1,1,0,0,1,0,0,1,1,1,0,0,0,0,0,0,0,0,0,0,0,0,0,0,0,0,0,0,0],"id":6,"left_children":[1,3,5,7,9,11,13,15,17,19,21,23,25,27,29,-1,-1,-1,-1,-1,-1,-1,-1,-1,-1,-1,-1,-1,-1,-1,-1],"loss_changes":[3.7976309E3,2.6713154E3,9.431621E2,5.9182697E2,1.2786843E3,3.2676318E2,4.573042E2,2.5460718E2,3.9332205E2,3.0405658E2,6.147842E2,1.6768555E2,2.6045E2,3.0453586E2,1.3882153E2,0E0,0E0,0E0,0E0,0E0,0E0,0E0,0E0,0E0,0E0,0E0,0E0,0E0,0E0,0E0,0E0],"parents":[2147483647,0,0,1,1,2,2,3,3,4,4,5,5,6,6,7,7,8,8,9,9,10,10,11,11,12,12,13,13,14,14],"right_children":[2,4,6,8,10,12,14,16,18,20,22,24,26,28,30,-1,-1,-1,-1,-1,-1,-1,-1,-1,-1,-1,-1,-1,-1,-1,-1],"split_conditions":[1.84E1,9.7333336E1,9.79E1,5.8E1,5.8833332E1,7.2666664E1,2.1333334E1,6.9E1,9.54E1,8.45E1,9.7E1,6.8E1,1.23E2,9.85E1,4.5E1,2.2566712E-3,7.3263953E-3,4.106797E-3,-1.0450613E-3,2.1499472E-4,6.9276164E-3,-2.5949237E-4,-5.148564E-3,-7.525334E-3,8.02036E-3,1.8442358E-3,6.8862825E-3,2.5891555E-3,-1.8877969E-3,6.00486E-3,-1.8038735E-2],"split_indices":[17,20,5,24,26,26,17,12,20,14,5,18,3,20,16,0,0,0,0,0,0,0,0,0,0,0,0,0,0,0,0],"split_type":[0,0,0,0,0,0,0,0,0,0,0,0,0,0,0,0,0,0,0,0,0,0,0,0,0,0,0,0,0,0,0],"sum_hessian":[5.4229297E4,3.71266E4,1.7102693E4,1.1304679E4,2.5821926E4,9.050158E3,8.0525356E3,4.0878726E3,7.2168057E3,3.2340269E3,2.2587898E4,4.836E3,4.2141577E3,6.212913E3,1.8396228E3,1.7164514E3,2.3714214E3,2.0797615E3,5.1370444E3,2.2745315E3,9.5949524E2,2.9651624E3,1.9622736E4,6.8264435E1,4.767736E3,2.4361626E3,1.777995E3,2.6410698E3,3.5718433E3,1.8173751E3,2.2247713E1],"tree_param":{"num_deleted":"0","num_feature":"77","num_nodes":"31","size_leaf_vector":"1"}},{"base_weights":[-1.3966094E-3,-1.9969508E-1,3.87078E-1,-7.9818654E-1,-9.948575E-2,6.0910267E-1,1.4982899E-1,1.04702696E-1,-9.7666645E-1,4.733491E-1,-1.7310542E-1,7.396088E-1,3.0499527E-1,-2.895366E-1,3.7171176E-1,-4.1388725E-3,5.2298135E-3,-1.0245321E-2,1.0823083E-2,5.313258E-3,-5.813303E-3,-2.840546E-3,1.4356301E-3,6.6807144E-3,1.0649398E-2,7.5022783E-4,6.272923E-3,5.460456E-3,-5.796925E-3,2.0774407E-3,6.599121E-3],"categories":[],"categories_nodes":[],"categories_segments":[],"categories_sizes":[],"default_left":[0,1,1,0,0,1,0,0,1,0,0,1,1,0,1,0,0,0,0,0,0,0,0,0,0,0,0,0,0,0,0],"id":7,"left_children":[1,3,5,7,9,11,13,15,17,19,21,23,25,27,29,-1,-1,-1,-1,-1,-1,-1,-1,-1,-1,-1,-1,-1,-1,-1,-1],"loss_changes":[4.1907734E3,2.1592266E3,9.6743945E2,8.33302E2,1.3011919E3,3.7529688E2,8.67171E2,1.8562701E2,4.2723584E2,2.1538452E2,9.6101917E2,1.5136377E2,2.1092859E2,7.2398474E2,2.7817432E2,0E0,0E0,0E0,0E0,0E0,0E0,0E0,0E0,0E0,0E0,0E0,0E0,0E0,0E0,0E0,0E0],"parents":[2147483647,0,0,1,1,2,2,3,3,4,4,5,5,6,6,7,7,8,8,9,9,10,10,11,11,12,12,13,13,14,14],"right_children":[2,4,6,8,10,12,14,16,18,20,22,24,26,28,30,-1,-1,-1,-1,-1,-1,-1,-1,-1,-1,-1,-1,-1,-1,-1,-1],"split_conditions":[1.8142857E1,3.6E1,9.79E1,9.74E1,9.5666664E1,7.25E1,5.3E1,9.3E1,1.1769231E2,1.75E2,7.3E1,9.5E1,7E1,9.7666664E1,9.9E1,-4.1388725E-3,5.2298135E-3,-1.0245321E-2,1.0823083E-2,5.313258E-3,-5.813303E-3,-2.840546E-3,1.4356301E-3,6.6807144E-3,1.0649398E-2,7.5022783E-4,6.272923E-3,5.460456E-3,-5.796925E-3,2.0774407E-3,6.599121E-3],"split_indices":[17,0,5,20,20,26,0,13,14,22,0,12,0,20,13,0,0,0,0,0,0,0,0,0,0,0,0,0,0,0,0],"split_type":[0,0,0,0,0,0,0,0,0,0,0,0,0,0,0,0,0,0,0,0,0,0,0,0,0,0,0,0,0,0,0],"sum_hessian":[5.440009E4,3.6018066E4,1.8382025E4,5.1623677E3,3.0855697E4,9.491887E3,8.890138E3,8.512602E2,4.3111074E3,3.5111316E3,2.7344566E4,6.6373486E3,2.8545376E3,2.9813809E3,5.9087573E3,3.7899954E2,4.7226068E2,4.214619E3,9.6488396E1,3.330018E3,1.8111357E2,2.0252268E4,7.092299E3,5.4484614E3,1.1888872E3,1.6691193E3,1.1854185E3,7.670998E2,2.214281E3,3.7704963E3,2.138261E3],"tree_param":{"num_deleted":"0","num_feature":"77","num_nodes":"31","size_leaf_vector":"1"}},{"base_weights":[-5.068816E-3,-1.6891982E-1,3.8759387E-1,2.1927807E-1,-2.9015827E-1,5.646541E-1,1.8218872E-1,4.1503587E-1,-6.297887E-2,-1.3255826E-2,-4.2743093E-1,8.058364E-1,3.9739797E-1,-8.599593E-2,3.975141E-1,1.6899643E-3,6.213812E-3,-2.5124724E-3,4.4565396E-3,1.4903076E-3,-3.3354582E-3,-5.5542192E-3,-2.157375E-3,9.165316E-3,2.0564825E-3,2.480834E-4,5.5596996E-3,1.2137276E-2,-1.629288E-3,8.963338E-3,3.0016494E-3],"categories":[],"categories_nodes":[],"categories_segments":[],"categories_sizes":[],"default_left":[0,0,1,0,1,1,1,1,1,1,0,1,1,0,1,0,0,0,0,0,0,0,0,0,0,0,0,0,0,0,0],"id":8,"left_children":[1,3,5,7,9,11,13,15,17,19,21,23,25,27,29,-1,-1,-1,-1,-1,-1,-1,-1,-1,-1,-1,-1,-1,-1,-1,-1],"loss_changes":[3.500938E3,1.8073721E3,5.8168677E2,5.052765E2,1.1118496E3,3.4508008E2,4.2897928E2,2.7303717E2,3.5832068E2,5.04641E2,5.2900146E2,2.3218848E2,2.9981177E2,3.298051E2,1.9828949E2,0E0,0E0,0E0,0E0,0E0,0E0,0E0,0E0,0E0,0E0,0E0,0E0,0E0,0E0,0E0,0E0],"parents":[2147483647,0,0,1,1,2,2,3,3,4,4,5,5,6,6,7,7,8,8,9,9,10,10,11,11,12,12,13,13,14,14],"right_children":[2,4,6,8,10,12,14,16,18,20,22,24,26,28,30,-1,-1,-1,-1,-1,-1,-1,-1,-1,-1,-1,-1,-1,-1,-1,-1],"split_conditions":[2.1E1,9.6E1,7.2E1,7.275E1,6.9E1,2E0,8.4E1,7.1E1,8.7E1,6E0,1.3866667E2,6.95E1,7.375E1,9.6E1,9.7E1,1.6899643E-3,6.213812E-3,-2.5124724E-3,4.4565396E-3,1.4903076E-3,-3.3354582E-3,-5.5542192E-3,-2.157375E-3,9.165316E-3,2.0564825E-3,2.480834E-4,5.5596996E-3,1.2137276E-2,-1.629288E-3,8.963338E-3,3.0016494E-3],"split_indices":[16,18,7,26,7,1,14,12,12,8,23,26,14,19,19,0,0,0,0,0,0,0,0,0,0,0,0,0,0,0,0],"split_type":[0,0,0,0,0,0,0,0,0,0,0,0,0,0,0,0,0,0,0,0,0,0,0,0,0,0,0,0,0,0,0],"sum_hessian":[5.4413996E4,3.839581E4,1.60181875E4,9.135298E3,2.9260512E4,8.598162E3,7.420025E3,5.395724E3,3.7395737E3,9.701136E3,1.9559375E4,3.5153857E3,5.0827764E3,3.302886E3,4.117139E3,2.4650105E3,2.9307134E3,2.7314988E3,1.00807495E3,6.4373604E3,3.2637756E3,1.2184556E4,7.3748193E3,2.9656907E3,5.49695E2,1.5199756E3,3.5628008E3,1.822001E2,3.1206858E3,6.679352E2,3.4492039E3],"tree_param":{"num_deleted":"0","num_feature":"77","num_nodes":"31","size_leaf_vector":"1"}},{"base_weights":[9.679481E-3,-1.42607E-1,3.8163233E-1,1.5599744E-1,-2.8607824E-1,7.1782804E-1,2.4908783E-1,-2.4739468E-2,3.3961377E-1,-8.329102E-3,-4.119258E-1,8.5458463E-1,3.604107E-1,-1.3748117E-1,4.0823457E-1,-1.2281903E-3,3.4110115E-3,6.2537724E-3,1.4059826E-3,4.482758E-3,-9.895763E-4,-4.977443E-3,-1.3071465E-3,-1.7236803E-2,8.667254E-3,-1.2579039E-2,4.43824E-3,1.2794601E-2,-2.1883503E-3,5.770769E-3,3.638635E-4],"categories":[],"categories_nodes":[],"categories_segments":[],"categories_sizes":[],"default_left":[0,1,1,0,0,1,1,0,1,1,1,0,0,0,0,0,0,0,0,0,0,0,0,0,0,0,0,0,0,0,0],"id":9,"left_children":[1,3,5,7,9,11,13,15,17,19,21,23,25,27,29,-1,-1,-1,-1,-1,-1,-1,-1,-1,-1,-1,-1,-1,-1,-1,-1],"loss_changes":[3.0986265E3,1.6628113E3,7.0682324E2,4.182751E2,9.159426E2,2.1765869E2,7.019235E2,2.2756299E2,3.5450714E2,3.3820624E2,4.3458447E2,1.03684814E2,1.6879054E2,3.8280502E2,5.0664014E2,0E0,0E0,0E0,0E0,0E0,0E0,0E0,0E0,0E0,0E0,0E0,0E0,0E0,0E0,0E0,0E0],"parents":[2147483647,0,0,1,1,2,2,3,3,4,4,5,5,6,6,7,7,8,8,9,9,10,10,11,11,12,12,13,13,14,14],"right_children":[2,4,6,8,10,12,14,16,18,20,22,24,26,28,30,-1,-1,-1,-1,-1,-1,-1,-1,-1,-1,-1,-1,-1,-1,-1,-1],"split_conditions":[2.1E1,6.8E1,2E0,8.2E1,9.81E1,6.95E1,7.375E1,2E1,1.125E2,5.8E1,1.59E2,2.8E1,6.8E1,9.6E1,8.2E1,-1.2281903E-3,3.4110115E-3,6.2537724E-3,1.4059826E-3,4.482758E-3,-9.895763E-4,-4.977443E-3,-1.3071465E-3,-1.7236803E-2,8.667254E-3,-1.2579039E-2,4.43824E-3,1.2794601E-2,-2.1883503E-3,5.770769E-3,3.638635E-4],"split_indices":[16,7,1,3,19,26,14,16,23,24,22,24,7,19,7,0,0,0,0,0,0,0,0,0,0,0,0,0,0,0,0],"split_type":[0,0,0,0,0,0,0,0,0,0,0,0,0,0,0,0,0,0,0,0,0,0,0,0,0,0,0,0,0,0,0],"sum_hessian":[5.4695977E4,3.880629E4,1.58896875E4,1.2591874E4,2.6214416E4,4.4884565E3,1.1401231E4,6.34382E3,6.248054E3,8.177195E3,1.803722E4,3.2422954E3,1.2461611E3,3.323181E3,8.0780503E3,5.005846E3,1.3379738E3,2.5611814E3,3.6868726E3,1.3511086E3,6.826086E3,1.3815871E4,4.2213496E3,1.3488653E1,3.2288066E3,5.9114895E1,1.1870463E3,1.781741E2,3.1450068E3,5.5528955E3,2.525155E3],"tree_param":{"num_deleted":"0","num_feature":"77","num_nodes":"31","size_leaf_vector":"1"}},{"base_weights":[8.861809E-3,-2.1714349E-1,2.89613E-1,1.593536E-1,-4.4271955E-1,1.2834443E-1,6.176861E-1,7.2967196E-1,-1.7458139E-2,1.6874902E-2,-5.8690846E-1,7.5991696E-1,8.076977E-2,6.258143E-1,-1.8473871E-2,8.8820085E-3,2.09058E-3,5.3237746E-3,-1.6000783E-3,-8.305175E-3,1.2006823E-3,-9.217055E-3,-4.6258676E-3,8.298461E-3,-1.8347394E-2,-1.442906E-3,2.2170846E-3,-1.0925605E-2,6.3671824E-3],"categories":[],"categories_nodes":[],"categories_segments":[],"categories_sizes":[],"default_left":[1,1,0,1,1,0,0,1,0,1,1,0,0,0,0,0,0,0,0,0,0,0,0,0,0,0,0,0,0],"id":10,"left_children":[1,3,5,7,9,11,13,15,17,19,21,23,25,27,-1,-1,-1,-1,-1,-1,-1,-1,-1,-1,-1,-1,-1,-1,-1],"loss_changes":[3.466843E3,2.5710225E3,1.2884108E3,1.1442595E3,1.2550269E3,4.9007733E2,1.6195728E2,2.2013623E2,6.783249E2,3.9481616E2,5.975762E2,2.0944531E2,4.823259E2,1.5090845E2,0E0,0E0,0E0,0E0,0E0,0E0,0E0,0E0,0E0,0E0,0E0,0E0,0E0,0E0,0E0],"parents":[2147483647,0,0,1,1,2,2,3,3,4,4,5,5,6,6,7,7,8,8,9,9,10,10,11,11,12,12,13,13],"right_children":[2,4,6,8,10,12,14,16,18,20,22,24,26,28,-1,-1,-1,-1,-1,-1,-1,-1,-1,-1,-1,-1,-1,-1,-1],"split_conditions":[6.3E1,9.744444E1,1.9E1,9.5E1,1.15E2,6.4E1,1E0,1.41E2,6.4E1,6.6E1,3.6E1,1.02E2,7.3E1,5.4833332E1,-1.8473871E-2,8.8820085E-3,2.09058E-3,5.3237746E-3,-1.6000783E-3,-8.305175E-3,1.2006823E-3,-9.217055E-3,-4.6258676E-3,8.298461E-3,-1.8347394E-2,-1.442906E-3,2.2170846E-3,-1.0925605E-2,6.3671824E-3],"split_indices":[0,20,17,5,6,0,67,22,26,14,0,7,0,14,0,0,0,0,0,0,0,0,0,0,0,0,0,0,0],"split_type":[0,0,0,0,0,0,0,0,0,0,0,0,0,0,0,0,0,0,0,0,0,0,0,0,0,0,0,0,0],"sum_hessian":[5.463277E4,3.0265705E4,2.4367064E4,1.1338076E4,1.8927629E4,1.6340507E4,8.026558E3,2.6830657E3,8.65501E3,4.5188545E3,1.4408774E4,1.1410918E3,1.5199415E4,8.00207E3,2.4487871E1,2.0542163E3,6.288494E2,1.7793407E3,6.8756694E3,4.879738E2,4.0308806E3,3.8960046E3,1.05127705E4,1.112845E3,2.8246794E1,5.8502305E3,9.349185E3,4.8627728E1,7.9534424E3],"tree_param":{"num_deleted":"0","num_feature":"77","num_nodes":"29","size_leaf_vector":"1"}},{"base_weights":[2.035406E-2,-1.4928845E-1,4.2577693E-1,2.207182E-1,-3.110938E-1,6.0514987E-1,3.7659642E-3,5.312842E-1,3.8145147E-2,3.9782044E-3,-4.557528E-1,7.646728E-1,3.6056772E-1,2.5932834E-1,-4.903126E-1,2.7097038E-3,7.189305E-3,3.9626868E-3,-1.0693078E-3,3.8095494E-3,-8.236919E-4,2.7822494E-3,-4.9057486E-3,6.899895E-3,1.103567E-2,5.3893244E-3,1.1154999E-3,4.3561906E-3,-1.5728086E-3,-1.0480983E-2,-2.734295E-3],"categories":[],"categories_nodes":[],"categories_segments":[],"categories_sizes":[],"default_left":[0,0,1,1,1,1,0,0,0,0,0,0,1,1,0,0,0,0,0,0,0,0,0,0,0,0,0,0,0,0,0],"id":11,"left_children":[1,3,5,7,9,11,13,15,17,19,21,23,25,27,29,-1,-1,-1,-1,-1,-1,-1,-1,-1,-1,-1,-1,-1,-1,-1,-1],"loss_changes":[3.7685378E3,2.3126865E3,1.2229939E3,6.656914E2,1.2254155E3,4.4082764E2,6.0926636E2,2.1102649E2,3.8508826E2,2.756335E2,4.71313E2,1.7031055E2,1.9836273E2,2.3416959E2,1.9701904E2,0E0,0E0,0E0,0E0,0E0,0E0,0E0,0E0,0E0,0E0,0E0,0E0,0E0,0E0,0E0,0E0],"parents":[2147483647,0,0,1,1,2,2,3,3,4,4,5,5,6,6,7,7,8,8,9,9,10,10,11,11,12,12,13,13,14,14],"right_children":[2,4,6,8,10,12,14,16,18,20,22,24,26,28,30,-1,-1,-1,-1,-1,-1,-1,-1,-1,-1,-1,-1,-1,-1,-1,-1],"split_conditions":[1.8666666E1,9.7333336E1,3E0,5.8E1,6.8E1,7.2E1,7.7E1,6.9E1,9.54E1,1.6E1,1.07E2,1E0,9.6E1,9.85E1,1.31E2,2.7097038E-3,7.189305E-3,3.9626868E-3,-1.0693078E-3,3.8095494E-3,-8.236919E-4,2.7822494E-3,-4.9057486E-3,6.899895E-3,1.103567E-2,5.3893244E-3,1.1154999E-3,4.3561906E-3,-1.5728086E-3,-1.0480983E-2,-2.734295E-3],"split_indices":[17,20,1,24,7,7,24,12,20,17,6,76,18,20,6,0,0,0,0,0,0,0,0,0,0,0,0,0,0,0,0],"split_type":[0,0,0,0,0,0,0,0,0,0,0,0,0,0,0,0,0,0,0,0,0,0,0,0,0,0,0,0,0,0,0],"sum_hessian":[5.4785746E4,3.8623273E4,1.6162474E4,1.1749142E4,2.687413E4,1.1339471E4,4.823004E3,4.3463994E3,7.402742E3,8.454652E3,1.8419479E4,6.8580967E3,4.481374E3,3.1807393E3,1.6422645E3,1.8249464E3,2.5214531E3,2.1352512E3,5.267491E3,1.5765377E3,6.8781143E3,8.323602E2,1.758712E4,5.6270635E3,1.231033E3,2.607411E3,1.8739629E3,2.236612E3,9.441272E2,4.5634598E2,1.1859186E3],"tree_param":{"num_deleted":"0","num_feature":"77","num_nodes":"31","size_leaf_vector":"1"}},{"base_weights":[-7.868293E-3,2.748227E-1,-2.0900501E-1,1.3770021E-1,5.378039E-1,1.3285017E-1,-3.531749E-1,3.9324105E-1,-1.017467E-2,5.596612E-1,-7.12929E-1,-4.025211E-2,5.147415E-1,-4.4708467E-1,2.639745E-2,8.3858304E-4,5.242145E-3,1.5442887E-4,-1.6549258E-2,3.169765E-3,6.603377E-3,1.2358974E-2,-1.9626006E-2,-5.1163444E-3,4.106016E-4,-4.3858034E-3,5.716107E-3,-4.948707E-3,7.1445253E-4,1.1198661E-2,-1.8479096E-4],"categories":[],"categories_nodes":[],"categories_segments":[],"categories_sizes":[],"default_left":[1,0,1,0,0,1,1,1,0,0,0,1,1,0,0,0,0,0,0,0,0,0,0,0,0,0,0,0,0,0,0],"id":12,"left_children":[1,3,5,7,9,11,13,15,17,19,21,23,25,27,29,-1,-1,-1,-1,-1,-1,-1,-1,-1,-1,-1,-1,-1,-1,-1,-1],"loss_changes":[3.0836555E3,8.121312E2,1.5621576E3,5.60525E2,2.1177563E2,6.218873E2,7.950657E2,2.1957654E2,3.9729224E2,1.8410474E2,3.288551E2,2.4842227E2,1.5968256E2,4.4336255E2,2.1809598E2,0E0,0E0,0E0,0E0,0E0,0E0,0E0,0E0,0E0,0E0,0E0,0E0,0E0,0E0,0E0,0E0],"parents":[2147483647,0,0,1,1,2,2,3,3,4,4,5,5,6,6,7,7,8,8,9,9,10,10,11,11,12,12,13,13,14,14],"right_children":[2,4,6,8,10,12,14,16,18,20,22,24,26,28,30,-1,-1,-1,-1,-1,-1,-1,-1,-1,-1,-1,-1,-1,-1,-1,-1],"split_conditions":[9.74E1,2E1,6.6E1,6.7666664E1,1E0,8.5666664E1,1.84E1,7.2E1,1E0,1.8142857E1,2E0,6.1142857E1,1.4E1,9.88E1,9.4E1,8.3858304E-4,5.242145E-3,1.5442887E-4,-1.6549258E-2,3.169765E-3,6.603377E-3,1.2358974E-2,-1.9626006E-2,-5.1163444E-3,4.106016E-4,-4.3858034E-3,5.716107E-3,-4.948707E-3,7.1445253E-4,1.1198661E-2,-1.8479096E-4],"split_indices":[20,4,26,26,72,14,17,14,54,17,1,14,15,9,5,0,0,0,0,0,0,0,0,0,0,0,0,0,0,0,0],"split_type":[0,0,0,0,0,0,0,0,0,0,0,0,0,0,0,0,0,0,0,0,0,0,0,0,0,0,0,0,0,0,0],"sum_hessian":[5.4229996E4,2.2542107E4,3.168789E4,1.4821036E4,7.7210703E3,9.397586E3,2.2290305E4,5.434018E3,9.387019E3,7.590329E3,1.307413E2,6.4659116E3,2.931674E3,1.7871104E4,4.419201E3,1.6194657E3,3.8145522E3,9.244407E3,1.4261156E2,2.230895E3,5.359434E3,5.0777348E1,7.996395E1,9.5151514E2,5.5143965E3,1.6329443E2,2.7683796E3,1.636498E4,1.506123E3,1.7320625E2,4.245995E3],"tree_param":{"num_deleted":"0","num_feature":"77","num_nodes":"31","size_leaf_vector":"1"}},{"base_weights":[-2.9896107E-3,-1.6426907E-1,3.8202983E-1,-2.9025555E-1,2.4055281E-1,1.8727127E-2,5.2271163E-1,6.2157724E-2,-4.196486E-1,4.7338665E-1,3.3902567E-2,5.578115E-1,-2.9762974E-1,4.5027086E-1,9.583112E-1,4.4728685E-3,-1.2487295E-3,-8.760876E-3,-2.9492772E-3,3.6594819E-3,8.305919E-3,-1.9231075E-2,6.510917E-4,8.443167E-3,-1.7928296E-3,1.928108E-3,-5.6190724E-3,3.2222192E-3,6.126234E-3,9.845007E-3,-1.7188473E-2],"categories":[],"categories_nodes":[],"categories_segments":[],"categories_sizes":[],"default_left":[0,1,1,0,1,1,0,1,1,0,1,1,0,1,1,0,0,0,0,0,0,0,0,0,0,0,0,0,0,0,0],"id":13,"left_children":[1,3,5,7,9,11,13,15,17,19,21,23,25,27,29,-1,-1,-1,-1,-1,-1,-1,-1,-1,-1,-1,-1,-1,-1,-1,-1],"loss_changes":[3.3641821E3,1.9478203E3,8.1687085E2,1.3285676E3,4.3552332E2,7.626614E2,3.6146704E2,5.6384564E2,1.2112427E3,1.6164734E2,2.9189377E2,3.503438E2,3.6558694E2,2.0425732E2,1.17628784E2,0E0,0E0,0E0,0E0,0E0,0E0,0E0,0E0,0E0,0E0,0E0,0E0,0E0,0E0,0E0,0E0],"parents":[2147483647,0,0,1,1,2,2,3,3,4,4,5,5,6,6,7,7,8,8,9,9,10,10,11,11,12,12,13,13,14,14],"right_children":[2,4,6,8,10,12,14,16,18,20,22,24,26,28,30,-1,-1,-1,-1,-1,-1,-1,-1,-1,-1,-1,-1,-1,-1,-1,-1],"split_conditions":[1.8666666E1,7.3E1,5.3E1,9.7333336E1,6.65E1,9.7E1,1E0,5.8E1,3.6E1,9.2E1,9E0,7.175E1,1.21333336E2,2.025E1,1.78E2,4.4728685E-3,-1.2487295E-3,-8.760876E-3,-2.9492772E-3,3.6594819E-3,8.305919E-3,-1.9231075E-2,6.510917E-4,8.443167E-3,-1.7928296E-3,1.928108E-3,-5.6190724E-3,3.2222192E-3,6.126234E-3,9.845007E-3,-1.7188473E-2],"split_indices":[17,0,0,20,26,5,76,24,0,3,18,26,23,17,6,0,0,0,0,0,0,0,0,0,0,0,0,0,0,0,0],"split_type":[0,0,0,0,0,0,0,0,0,0,0,0,0,0,0,0,0,0,0,0,0,0,0,0,0,0,0,0,0,0,0],"sum_hessian":[5.4176836E4,3.818528E4,1.5991556E4,2.9124383E4,9.060896E3,4.466486E3,1.1525069E4,7.819796E3,2.1304588E4,4.257044E3,4.8038525E3,1.6523878E3,2.8140981E3,9.887182E3,1.6378881E3,2.5570151E3,5.262781E3,4.5678027E3,1.6736785E4,3.277963E3,9.7908105E2,7.299413E1,4.7308584E3,1.1906523E3,4.6173544E2,9.842691E2,1.829829E3,5.534332E3,4.3528496E3,1.6236427E3,1.4245428E1],"tree_param":{"num_deleted":"0","num_feature":"77","num_nodes":"31","size_leaf_vector":"1"}},{"base_weights":[1.0468596E-2,4.057395E-1,-1.4924014E-1,5.467489E-1,1.23797454E-1,-3.970172E-1,8.221703E-2,6.664621E-1,2.8552765E-1,-8.991953E-2,4.7881612E-1,1.5387207E-1,-4.911478E-1,-2.9919453E-2,4.0242437E-1,-1.3596899E-2,6.8567204E-3,1.0251959E-3,6.988956E-3,-3.098156E-3,3.4932338E-3,5.20343E-3,-1.8621976E-2,5.258946E-3,-2.5592074E-3,-8.615858E-3,-3.6486804E-3,2.5835508E-3,-1.367956E-3,4.9140304E-4,5.0564567E-3],"categories":[],"categories_nodes":[],"categories_segments":[],"categories_sizes":[],"default_left":[1,1,1,1,1,0,0,0,1,0,0,0,0,1,0,0,0,0,0,0,0,0,0,0,0,0,0,0,0,0,0],"id":14,"left_children":[1,3,5,7,9,11,13,15,17,19,21,23,25,27,29,-1,-1,-1,-1,-1,-1,-1,-1,-1,-1,-1,-1,-1,-1,-1,-1],"loss_changes":[3.4564285E3,6.2563574E2,2.2365376E3,3.2704297E2,3.9943506E2,9.771509E2,7.242538E2,2.8129932E2,2.491615E2,3.1720108E2,1.9288629E2,4.1956076E2,7.5071094E2,4.599416E2,1.9015637E2,0E0,0E0,0E0,0E0,0E0,0E0,0E0,0E0,0E0,0E0,0E0,0E0,0E0,0E0,0E0,0E0],"parents":[2147483647,0,0,1,1,2,2,3,3,4,4,5,5,6,6,7,7,8,8,9,9,10,10,11,11,12,12,13,13,14,14],"right_children":[2,4,6,8,10,12,14,16,18,20,22,24,26,28,30,-1,-1,-1,-1,-1,-1,-1,-1,-1,-1,-1,-1,-1,-1,-1,-1],"split_conditions":[9.7E1,3E0,5.7E1,7.275E1,8.2E1,6.2444443E1,2.2E1,2.4E1,9.1E1,7.5E1,1.65E2,6.3E1,7.35E1,7E1,6.5E1,-1.3596899E-2,6.8567204E-3,1.0251959E-3,6.988956E-3,-3.098156E-3,3.4932338E-3,5.20343E-3,-1.8621976E-2,5.258946E-3,-2.5592074E-3,-8.615858E-3,-3.6486804E-3,2.5835508E-3,-1.367956E-3,4.9140304E-4,5.0564567E-3],"split_indices":[5,1,0,26,12,26,16,0,12,0,23,7,14,25,0,0,0,0,0,0,0,0,0,0,0,0,0,0,0,0,0],"split_type":[0,0,0,0,0,0,0,0,0,0,0,0,0,0,0,0,0,0,0,0,0,0,0,0,0,0,0,0,0,0,0],"sum_hessian":[5.4744535E4,1.5754972E4,3.8989566E4,1.0498746E4,5.2562256E3,1.88323E4,2.0157264E4,7.194635E3,3.304111E3,3.2802383E3,1.9759874E3,2.746545E3,1.6085756E4,1.492813E4,5.229135E3,6.577184E1,7.1288633E3,2.2935957E3,1.0105153E3,2.1878242E3,1.092414E3,1.9434948E3,3.2492756E1,1.4405986E3,1.3059463E3,4.0844814E3,1.2001274E4,4.0343044E3,1.0893825E4,1.185228E3,4.043907E3],"tree_param":{"num_deleted":"0","num_feature":"77","num_nodes":"31","size_leaf_vector":"1"}},{"base_weights":[8.004644E-3,3.8592398E-1,-1.4219794E-1,2.294683E-1,6.137463E-1,-4.1771418E-1,1.0927289E-1,9.4340526E-2,4.4910347E-1,7.412401E-1,3.433072E-1,-4.6979108E-1,6.368167E-1,-2.3736956E-2,4.1731718E-1,-6.476833E-4,4.0764622E-3,4.8172274E-3,-1.2733166E-2,6.5871202E-3,1.101006E-2,-1.533162E-3,5.544808E-3,-6.5345857E-3,-2.2028664E-3,-1.8093282E-2,7.288139E-3,5.4888736E-4,-3.6977173E-3,-1.2654012E-2,4.346183E-3],"categories":[],"categories_nodes":[],"categories_segments":[],"categories_sizes":[],"default_left":[1,0,1,1,1,0,0,1,0,0,1,1,0,0,0,0,0,0,0,0,0,0,0,0,0,0,0,0,0,0,0],"id":15,"left_children":[1,3,5,7,9,11,13,15,17,19,21,23,25,27,29,-1,-1,-1,-1,-1,-1,-1,-1,-1,-1,-1,-1,-1,-1,-1,-1],"loss_changes":[3.0991326E3,5.523689E2,2.7069055E3,2.7277014E2,2.162622E2,1.0242434E3,8.371942E2,2.8496167E2,1.973844E2,1.2415845E2,2.1352852E2,8.130593E2,1.9897952E2,3.8842444E2,1.7964319E2,0E0,0E0,0E0,0E0,0E0,0E0,0E0,0E0,0E0,0E0,0E0,0E0,0E0,0E0,0E0,0E0],"parents":[2147483647,0,0,1,1,2,2,3,3,4,4,5,5,6,6,7,7,8,8,9,9,10,10,11,11,12,12,13,13,14,14],"right_children":[2,4,6,8,10,12,14,16,18,20,22,24,26,28,30,-1,-1,-1,-1,-1,-1,-1,-1,-1,-1,-1,-1,-1,-1,-1,-1],"split_conditions":[9.7E1,1.9E1,5.7E1,8E1,9.5E1,1E0,1.84E1,7.5E1,1.82E2,1E0,8.8E1,8.35E1,7.2E1,8.6E1,6E1,-6.476833E-4,4.0764622E-3,4.8172274E-3,-1.2733166E-2,6.5871202E-3,1.101006E-2,-1.533162E-3,5.544808E-3,-6.5345857E-3,-2.2028664E-3,-1.8093282E-2,7.288139E-3,5.4888736E-4,-3.6977173E-3,-1.2654012E-2,4.346183E-3],"split_indices":[5,17,0,12,5,76,17,0,22,76,13,14,3,7,13,0,0,0,0,0,0,0,0,0,0,0,0,0,0,0,0],"split_type":[0,0,0,0,0,0,0,0,0,0,0,0,0,0,0,0,0,0,0,0,0,0,0,0,0,0,0,0,0,0,0],"sum_hessian":[5.4588125E4,1.552635E4,3.9061773E4,9.209904E3,6.316445E3,1.8640996E4,2.0420777E4,5.7064775E3,3.503427E3,4.287839E3,2.028606E3,1.7765713E4,8.752841E2,1.4261453E4,6.159325E3,3.7834758E3,1.9230017E3,3.4402957E3,6.313125E1,3.4946338E3,7.932054E2,6.039922E2,1.4246138E3,1.022877E4,7.536943E3,2.9978249E1,8.4530585E2,1.1619968E4,2.641485E3,6.0626896E1,6.098698E3],"tree_param":{"num_deleted":"0","num_feature":"77","num_nodes":"31","size_leaf_vector":"1"}},{"base_weights":[1.4494236E-2,-1.7235592E-1,3.8026622E-1,1.6988088E-1,-3.1513235E-1,7.59576E-1,2.3841625E-1,4.8144028E-1,-3.9229617E-3,-8.754324E-1,-1.9866191E-1,6.683772E-1,1.1481693E0,-1.5580977E-1,4.0753818E-1,1.6410043E-3,7.038989E-3,-1.0759833E-3,3.8222696E-3,-9.26769E-3,1.0756103E-2,-2.9948482E-3,1.1532027E-3,7.6650656E-3,2.035538E-3,1.176194E-2,-1.5596936E-2,4.2520687E-3,-4.1120904E-3,2.5106114E-3,6.3375942E-3],"categories":[],"categories_nodes":[],"categories_segments":[],"categories_sizes":[],"default_left":[0,0,1,1,1,0,1,1,1,1,0,1,1,0,1,0,0,0,0,0,0,0,0,0,0,0,0,0,0,0,0],"id":16,"left_children":[1,3,5,7,9,11,13,15,17,19,21,23,25,27,29,-1,-1,-1,-1,-1,-1,-1,-1,-1,-1,-1,-1,-1,-1,-1,-1],"loss_changes":[3.7384067E3,1.7691528E3,9.937908E2,5.775033E2,1.6657356E3,1.7495361E2,8.982E2,2.6842334E2,2.7364502E2,4.419995E2,6.699331E2,1.8490088E2,7.549048E1,6.0018335E2,3.3245728E2,0E0,0E0,0E0,0E0,0E0,0E0,0E0,0E0,0E0,0E0,0E0,0E0,0E0,0E0,0E0,0E0],"parents":[2147483647,0,0,1,1,2,2,3,3,4,4,5,5,6,6,7,7,8,8,9,9,10,10,11,11,12,12,13,13,14,14],"right_children":[2,4,6,8,10,12,14,16,18,20,22,24,26,28,30,-1,-1,-1,-1,-1,-1,-1,-1,-1,-1,-1,-1,-1,-1,-1,-1],"split_conditions":[1.8142857E1,9.7333336E1,9.5E1,5.8E1,3.6E1,1E0,5.3E1,6.9E1,8.9E1,1.158E2,7.3E1,7.6333336E1,1.565E2,6.9125E1,9.3E1,1.6410043E-3,7.038989E-3,-1.0759833E-3,3.8222696E-3,-9.26769E-3,1.0756103E-2,-2.9948482E-3,1.1532027E-3,7.6650656E-3,2.035538E-3,1.176194E-2,-1.5596936E-2,4.2520687E-3,-4.1120904E-3,2.5106114E-3,6.3375942E-3],"split_indices":[17,20,5,24,0,76,0,12,12,14,0,26,23,26,3,0,0,0,0,0,0,0,0,0,0,0,0,0,0,0,0],"split_type":[0,0,0,0,0,0,0,0,0,0,0,0,0,0,0,0,0,0,0,0,0,0,0,0,0,0,0,0,0,0,0],"sum_hessian":[5.4692453E4,3.6198973E4,1.849348E4,1.0653948E4,2.5545025E4,5.0292905E3,1.346419E4,3.8158677E3,6.83808E3,4.3925117E3,2.1152514E4,4.0798135E3,9.494769E2,4.0403386E3,9.423852E3,1.5758582E3,2.2400095E3,5.393926E3,1.4441544E3,4.2814194E3,1.1109197E2,1.6013645E4,5.138869E3,3.3658057E3,7.1400793E2,9.4123627E2,8.240667E0,1.2321143E3,2.8082244E3,5.5757505E3,3.848101E3],"tree_param":{"num_deleted":"0","num_feature":"77","num_nodes":"31","size_leaf_vector":"1"}},{"base_weights":[1.3137682E-2,-2.0658289E-1,2.858188E-1,2.9022977E-1,-3.4126407E-1,1.5246445E-1,6.129881E-1,-7.0700324E-1,3.9999202E-1,1.02075726E-1,-4.668738E-1,5.599108E-1,7.4024245E-2,5.4984146E-1,9.554705E-1,5.399936E-3,-9.886286E-3,6.0007274E-3,1.4255698E-4,6.561574E-3,-1.187867E-3,-8.358578E-3,-3.3413689E-3,6.131454E-3,-1.0146775E-2,-5.582896E-4,2.3600266E-3,-1.9219007E-2,5.6271027E-3,9.908013E-3,-1.6958773E-2],"categories":[],"categories_nodes":[],"categories_segments":[],"categories_sizes":[],"default_left":[1,1,0,0,0,1,0,0,1,0,1,1,0,0,1,0,0,0,0,0,0,0,0,0,0,0,0,0,0,0,0],"id":17,"left_children":[1,3,5,7,9,11,13,15,17,19,21,23,25,27,29,-1,-1,-1,-1,-1,-1,-1,-1,-1,-1,-1,-1,-1,-1,-1,-1],"loss_changes":[3.2726917E3,2.0240872E3,1.062542E3,7.062993E2,1.3257329E3,5.5289636E2,1.5003369E2,2.2606058E2,4.4800012E2,6.436488E2,9.066294E2,2.3504724E2,3.0582037E2,1.905232E2,1.0506177E2,0E0,0E0,0E0,0E0,0E0,0E0,0E0,0E0,0E0,0E0,0E0,0E0,0E0,0E0,0E0,0E0],"parents":[2147483647,0,0,1,1,2,2,3,3,4,4,5,5,6,6,7,7,8,8,9,9,10,10,11,11,12,12,13,13,14,14],"right_children":[2,4,6,8,10,12,14,16,18,20,22,24,26,28,30,-1,-1,-1,-1,-1,-1,-1,-1,-1,-1,-1,-1,-1,-1,-1,-1],"split_conditions":[6.3E1,6.4E1,1.9333334E1,6.625E1,9.6E1,1.21E2,1E0,9.75E1,3E0,6.7666664E1,3.6E1,8.5E1,7.7E1,6.7E1,1.74E2,5.399936E-3,-9.886286E-3,6.0007274E-3,1.4255698E-4,6.561574E-3,-1.187867E-3,-8.358578E-3,-3.3413689E-3,6.131454E-3,-1.0146775E-2,-5.582896E-4,2.3600266E-3,-1.9219007E-2,5.6271027E-3,9.908013E-3,-1.6958773E-2],"split_indices":[0,7,17,14,18,22,76,11,1,26,0,7,0,21,6,0,0,0,0,0,0,0,0,0,0,0,0,0,0,0,0],"split_type":[0,0,0,0,0,0,0,0,0,0,0,0,0,0,0,0,0,0,0,0,0,0,0,0,0,0,0,0,0,0,0],"sum_hessian":[5.461818E4,3.0244572E4,2.437361E4,6.4483027E3,2.379627E4,1.731997E4,7.053638E3,6.373883E2,5.8109146E3,5.2519424E3,1.8544328E4,2.7920488E3,1.4527922E4,5.962422E3,1.0912164E3,1.164369E2,5.209514E2,3.8238086E3,1.9871061E3,1.4969933E3,3.754949E3,4.9013506E3,1.3642977E4,2.7025361E3,8.9512665E1,8.0608877E3,6.4670337E3,2.8942774E1,5.933479E3,1.0784749E3,1.274156E1],"tree_param":{"num_deleted":"0","num_feature":"77","num_nodes":"31","size_leaf_vector":"1"}},{"base_weights":[-4.5903632E-3,-2.2887726E-1,2.713829E-1,2.5665674E-1,-3.8062865E-1,1.27136E-1,5.653031E-1,-3.26326E-1,4.05909E-1,3.142283E-1,-4.760124E-1,2.9199982E-1,-6.6338114E-2,4.125256E-1,6.9857407E-1,7.4480977E-3,-5.285029E-3,7.03578E-3,1.7418389E-3,-1.9479048E-3,5.096004E-3,-6.085281E-3,-9.0943737E-4,9.564652E-3,2.3427214E-3,-1.4876159E-3,3.1845889E-3,-3.2592549E-3,4.6498245E-3,-1.733184E-2,7.0790444E-3],"categories":[],"categories_nodes":[],"categories_segments":[],"categories_sizes":[],"default_left":[1,1,0,0,0,1,1,0,1,1,1,0,1,0,1,0,0,0,0,0,0,0,0,0,0,0,0,0,0,0,0],"id":18,"left_children":[1,3,5,7,9,11,13,15,17,19,21,23,25,27,29,-1,-1,-1,-1,-1,-1,-1,-1,-1,-1,-1,-1,-1,-1,-1,-1],"loss_changes":[3.3592256E3,2.2064226E3,1.0306943E3,6.206792E2,1.5125391E3,5.209956E2,1.613374E2,3.1521472E2,3.9055975E2,2.743593E2,1.02293164E3,3.3658746E2,2.3810944E2,1.452702E2,9.831152E1,0E0,0E0,0E0,0E0,0E0,0E0,0E0,0E0,0E0,0E0,0E0,0E0,0E0,0E0,0E0,0E0],"parents":[2147483647,0,0,1,1,2,2,3,3,4,4,5,5,6,6,7,7,8,8,9,9,10,10,11,11,12,12,13,13,14,14],"right_children":[2,4,6,8,10,12,14,16,18,20,22,24,26,28,30,-1,-1,-1,-1,-1,-1,-1,-1,-1,-1,-1,-1,-1,-1,-1,-1],"split_conditions":[6.3E1,9.7E1,1.89E1,7E1,5.2E1,1.38E2,2.025E1,9.4E1,6.7666664E1,4.3E1,8.6E1,6.4E1,2E1,6.5E1,5.4E1,7.4480977E-3,-5.285029E-3,7.03578E-3,1.7418389E-3,-1.9479048E-3,5.096004E-3,-6.085281E-3,-9.0943737E-4,9.564652E-3,2.3427214E-3,-1.4876159E-3,3.1845889E-3,-3.2592549E-3,4.6498245E-3,-1.733184E-2,7.0790444E-3],"split_indices":[0,5,17,12,24,6,17,5,26,0,12,0,4,0,14,0,0,0,0,0,0,0,0,0,0,0,0,0,0,0,0],"split_type":[0,0,0,0,0,0,0,0,0,0,0,0,0,0,0,0,0,0,0,0,0,0,0,0,0,0,0,0,0,0,0],"sum_hessian":[5.426773E4,2.9939498E4,2.4328234E4,7.1273413E3,2.2812156E4,1.6323456E4,8.004779E3,1.4509247E3,5.676417E3,2.7516577E3,2.0060498E4,8.815615E3,7.5078403E3,3.736767E3,4.2680117E3,2.287405E2,1.2221842E3,2.4809956E3,3.1954211E3,7.6179065E2,1.9898671E3,1.492167E4,5.1388286E3,7.007923E2,8.114823E3,6.186515E3,1.3213252E3,2.4588483E2,3.4908823E3,1.4491254E1,4.2535205E3],"tree_param":{"num_deleted":"0","num_feature":"77","num_nodes":"31","size_leaf_vector":"1"}},{"base_weights":[-6.7836065E-3,3.8227352E-1,-1.6476443E-1,5.179174E-1,1.0978889E-1,-4.9356854E-1,5.68308E-2,4.6380126E-1,1.1316763E0,-1.455623E-1,3.8576567E-1,-5.6695604E-1,2.4246457E-1,-6.0757164E-2,4.2368713E-1,2.0181716E-3,6.001547E-3,-1.4617965E-2,1.1549239E-2,-6.1813736E-4,-9.67657E-3,2.4407378E-3,9.333001E-3,-8.954704E-3,-3.8312566E-3,-1.0463472E-2,3.419221E-3,2.8967713E-3,-1.6934006E-3,2.5372338E-3,6.391255E-3],"categories":[],"categories_nodes":[],"categories_segments":[],"categories_sizes":[],"default_left":[1,1,1,0,1,1,1,0,0,0,0,1,1,1,1,0,0,0,0,0,0,0,0,0,0,0,0,0,0,0,0],"id":19,"left_children":[1,3,5,7,9,11,13,15,17,19,21,23,25,27,29,-1,-1,-1,-1,-1,-1,-1,-1,-1,-1,-1,-1,-1,-1,-1,-1],"loss_changes":[3.324396E3,5.765593E2,2.803582E3,3.436167E2,3.6652914E2,8.37354E2,9.91833E2,3.4136523E2,5.3825195E1,1.8463992E2,1.9229227E2,8.4884033E2,1.8006592E2,6.622103E2,2.0313385E2,0E0,0E0,0E0,0E0,0E0,0E0,0E0,0E0,0E0,0E0,0E0,0E0,0E0,0E0,0E0,0E0],"parents":[2147483647,0,0,1,1,2,2,3,3,4,4,5,5,6,6,7,7,8,8,9,9,10,10,11,11,12,12,13,13,14,14],"right_children":[2,4,6,8,10,12,14,16,18,20,22,24,26,28,30,-1,-1,-1,-1,-1,-1,-1,-1,-1,-1,-1,-1,-1,-1,-1,-1],"split_conditions":[9.7E1,3E0,5.3E1,1E0,8.275E1,9.903333E1,1.8666666E1,9.81E1,7.9E1,9.1E1,7.9E1,3.6E1,8.2E1,5.2E1,9.8E1,2.0181716E-3,6.001547E-3,-1.4617965E-2,1.1549239E-2,-6.1813736E-4,-9.67657E-3,2.4407378E-3,9.333001E-3,-8.954704E-3,-3.8312566E-3,-1.0463472E-2,3.419221E-3,2.8967713E-3,-1.6934006E-3,2.5372338E-3,6.391255E-3],"split_indices":[5,1,0,37,14,11,17,11,18,13,0,0,3,24,13,0,0,0,0,0,0,0,0,0,0,0,0,0,0,0,0],"split_type":[0,0,0,0,0,0,0,0,0,0,0,0,0,0,0,0,0,0,0,0,0,0,0,0,0,0,0,0,0,0,0],"sum_hessian":[5.4086754E4,1.5617237E4,3.8469516E4,1.04231045E4,5.1941323E3,1.5488968E4,2.2980549E4,9.583272E3,8.39832E2,2.6964902E3,2.4976418E3,1.4086287E4,1.4026802E3,1.7401736E4,5.578812E3,3.2846228E3,6.29865E3,5.9795985E0,8.3385236E2,2.4502454E3,2.46245E2,1.9879219E3,5.0971985E2,5.049459E3,9.036828E3,9.8405495E1,1.3042747E3,4.1135034E3,1.3288233E4,3.1235652E3,2.455247E3],"tree_param":{"num_deleted":"0","num_feature":"77","num_nodes":"31","size_leaf_vector":"1"}},{"base_weights":[2.2507973E-2,3.817362E-1,-1.21495545E-1,1.9629508E-1,6.0719657E-1,1.7968339E-1,-2.557492E-1,3.848808E-2,4.6612823E-1,6.2084585E-1,-1.9196369E-2,6.534543E-1,6.9423944E-2,-2.9479432E-1,5.380943E-1,-2.510432E-4,1.1605708E-2,8.711725E-3,3.3297136E-3,7.7806604E-3,4.494515E-3,6.9681574E-3,-1.155939E-2,2.5183428E-4,8.198732E-3,-1.8168145E-3,-5.0587757E-3,-1.8787025E-2,6.0177585E-3],"categories":[],"categories_nodes":[],"categories_segments":[],"categories_sizes":[],"default_left":[1,0,0,1,1,1,0,1,0,1,0,0,0,1,0,0,0,0,0,0,0,0,0,0,0,0,0,0,0],"id":20,"left_children":[1,3,5,7,9,11,13,15,17,19,-1,21,23,25,27,-1,-1,-1,-1,-1,-1,-1,-1,-1,-1,-1,-1,-1,-1],"loss_changes":[2.843031E3,6.565154E2,1.5862734E3,3.6715018E2,2.4576807E2,6.3091486E2,8.4115234E2,3.902998E2,1.6993994E2,1.8826855E2,0E0,1.8012665E2,3.2494702E2,6.167051E2,1.966885E2,0E0,0E0,0E0,0E0,0E0,0E0,0E0,0E0,0E0,0E0,0E0,0E0,0E0,0E0],"parents":[2147483647,0,0,1,1,2,2,3,3,4,4,5,5,6,6,7,7,8,8,9,9,11,11,12,12,13,13,14,14],"right_children":[2,4,6,8,10,12,14,16,18,20,-1,22,24,26,28,-1,-1,-1,-1,-1,-1,-1,-1,-1,-1,-1,-1,-1,-1],"split_conditions":[9.7E1,2.1E1,9.775E1,8.1E1,2.07E2,6E1,1E0,2.1E1,1.11888885E2,9.3E1,-1.9196369E-2,1E0,1E0,8.2E1,5.7E1,-2.510432E-4,1.1605708E-2,8.711725E-3,3.3297136E-3,7.7806604E-3,4.494515E-3,6.9681574E-3,-1.155939E-2,2.5183428E-4,8.198732E-3,-1.8168145E-3,-5.0587757E-3,-1.8787025E-2,6.0177585E-3],"split_indices":[5,16,20,12,22,7,76,4,23,5,0,34,66,7,25,0,0,0,0,0,0,0,0,0,0,0,0,0,0],"split_type":[0,0,0,0,0,0,0,0,0,0,0,0,0,0,0,0,0,0,0,0,0,0,0,0,0,0,0,0,0],"sum_hessian":[5.495008E4,1.5725417E4,3.922466E4,8.632974E3,7.0924424E3,1.2091339E4,2.713332E4,5.45103E3,3.1819443E3,7.056231E3,3.621145E1,2.279159E3,9.81218E3,2.5863732E4,1.2695879E3,5.159677E3,2.9135306E2,7.8264746E2,2.3992969E3,3.6735586E3,3.3826726E3,2.2275588E3,5.1600117E1,9.269145E3,5.430353E2,1.6845318E4,9.018414E3,3.0727674E1,1.2388602E3],"tree_param":{"num_deleted":"0","num_feature":"77","num_nodes":"29","size_leaf_vector":"1"}},{"base_weights":[1.1219236E-2,-1.3489874E-1,3.6263812E-1,1.9222467E-1,-2.6507875E-1,6.520152E-1,2.0409821E-1,1.3143998E-1,7.230733E-1,5.567988E-2,-4.0387413E-1,7.047982E-1,7.299719E-2,-1.1322963E-1,3.5081458E-1,3.0689305E-3,-9.019019E-4,4.8532495E-3,1.0352876E-2,9.250469E-4,-9.54483E-3,-5.6606773E-3,-2.746248E-3,7.1294867E-3,-1.813438E-2,2.0090528E-3,-1.8891402E-2,-1.8084283E-3,1.0441062E-2,5.4844623E-3,1.0732362E-3],"categories":[],"categories_nodes":[],"categories_segments":[],"categories_sizes":[],"default_left":[0,1,1,1,0,1,1,1,0,0,1,1,1,1,1,0,0,0,0,0,0,0,0,0,0,0,0,0,0,0,0],"id":21,"left_children":[1,3,5,7,9,11,13,15,17,19,21,23,25,27,29,-1,-1,-1,-1,-1,-1,-1,-1,-1,-1,-1,-1,-1,-1,-1,-1],"loss_changes":[2.80501E3,1.6430507E3,7.349243E2,3.5328955E2,1.2291248E3,1.7257544E2,4.8312183E2,3.835715E2,8.106116E1,3.093793E2,4.0273755E2,1.08204346E2,1.19027336E2,2.5602756E2,3.4060382E2,0E0,0E0,0E0,0E0,0E0,0E0,0E0,0E0,0E0,0E0,0E0,0E0,0E0,0E0,0E0,0E0],"parents":[2147483647,0,0,1,1,2,2,3,3,4,4,5,5,6,6,7,7,8,8,9,9,10,10,11,11,12,12,13,13,14,14],"right_children":[2,4,6,8,10,12,14,16,18,20,22,24,26,28,30,-1,-1,-1,-1,-1,-1,-1,-1,-1,-1,-1,-1,-1,-1,-1,-1],"split_conditions":[2.1E1,6.6E1,9.6E1,9.903333E1,9.75E1,7.3E1,7.45E1,3E0,1.9E1,1.03E2,7.2E1,1.028E2,9.92E1,9.99E1,7.6E1,3.0689305E-3,-9.019019E-4,4.8532495E-3,1.0352876E-2,9.250469E-4,-9.54483E-3,-5.6606773E-3,-2.746248E-3,7.1294867E-3,-1.813438E-2,2.0090528E-3,-1.8891402E-2,-1.8084283E-3,1.0441062E-2,5.4844623E-3,1.0732362E-3],"split_indices":[16,7,5,11,20,24,14,8,16,7,12,2,2,2,7,0,0,0,0,0,0,0,0,0,0,0,0,0,0,0,0],"split_type":[0,0,0,0,0,0,0,0,0,0,0,0,0,0,0,0,0,0,0,0,0,0,0,0,0,0,0,0,0,0,0],"sum_hessian":[5.461844E4,3.857681E4,1.6041632E4,1.0979155E4,2.7597654E4,5.673489E3,1.0368144E4,9.855081E3,1.1240743E3,8.333282E3,1.9264373E4,5.1975234E3,4.7596533E2,3.2760747E3,7.092069E3,5.5026567E3,4.3524243E3,6.428567E2,4.8121768E2,8.042891E3,2.9039148E2,8.53695E3,1.0727422E4,5.1825806E3,1.4942916E1,4.490007E2,2.6964655E1,3.0976567E3,1.7841795E2,3.9110325E3,3.1810364E3],"tree_param":{"num_deleted":"0","num_feature":"77","num_nodes":"31","size_leaf_vector":"1"}},{"base_weights":[4.684469E-3,2.3975752E-1,-2.1142761E-1,4.951907E-1,8.6050466E-2,-2.9739097E-1,3.2431334E-1,2.0401041E-1,6.2496096E-1,2.5286543E-1,-1.2817906E-1,-6.3397777E-3,-4.048722E-1,9.233559E-2,5.4282486E-1,4.4055553E-3,-1.2461487E-3,7.1630534E-3,3.6530488E-3,-1.9077286E-2,2.635938E-3,-4.1891835E-3,9.094379E-4,3.7432804E-3,-1.0563858E-3,-4.969679E-3,-1.4363953E-3,3.3029045E-3,-3.699814E-3,-1.507192E-3,6.309663E-3],"categories":[],"categories_nodes":[],"categories_segments":[],"categories_sizes":[],"default_left":[1,1,1,0,0,1,1,1,1,0,1,1,0,1,0,0,0,0,0,0,0,0,0,0,0,0,0,0,0,0,0],"id":22,"left_children":[1,3,5,7,9,11,13,15,17,19,21,23,25,27,29,-1,-1,-1,-1,-1,-1,-1,-1,-1,-1,-1,-1,-1,-1,-1,-1],"loss_changes":[2.7615122E3,1.0216671E3,1.3043635E3,3.6844922E2,5.8131647E2,7.630591E2,1.9771548E2,2.3519666E2,1.5876074E2,2.1135602E2,4.5385297E2,2.4878317E2,4.279668E2,2.0962283E2,1.2374878E2,0E0,0E0,0E0,0E0,0E0,0E0,0E0,0E0,0E0,0E0,0E0,0E0,0E0,0E0,0E0,0E0],"parents":[2147483647,0,0,1,1,2,2,3,3,4,4,5,5,6,6,7,7,8,8,9,9,10,10,11,11,12,12,13,13,14,14],"right_children":[2,4,6,8,10,12,14,16,18,20,22,24,26,28,30,-1,-1,-1,-1,-1,-1,-1,-1,-1,-1,-1,-1,-1,-1,-1,-1],"split_conditions":[9.78E1,6.7E1,1.9333334E1,1.74E1,9.6E1,6.6E1,9.0666664E1,5.7E1,3E0,6.2E1,7.2E1,1.12E2,1.37E2,1E2,2E1,4.4055553E-3,-1.2461487E-3,7.1630534E-3,3.6530488E-3,-1.9077286E-2,2.635938E-3,-4.1891835E-3,9.094379E-4,3.7432804E-3,-1.0563858E-3,-4.969679E-3,-1.4363953E-3,3.3029045E-3,-3.699814E-3,-1.507192E-3,6.309663E-3],"split_indices":[20,7,17,17,18,7,14,24,1,18,12,22,21,5,17,0,0,0,0,0,0,0,0,0,0,0,0,0,0,0,0],"split_type":[0,0,0,0,0,0,0,0,0,0,0,0,0,0,0,0,0,0,0,0,0,0,0,0,0,0,0,0,0,0,0],"sum_hessian":[5.4353652E4,2.6036836E4,2.8316816E4,9.777484E3,1.6259353E4,2.440381E4,3.9130051E3,3.0181558E3,6.7593286E3,9.143699E3,7.1156533E3,6.584606E3,1.7819205E4,1.9016178E3,2.0113875E3,1.756317E3,1.2618387E3,4.994829E3,1.7644994E3,4.2970634E1,9.100729E3,3.0592637E3,4.0563896E3,1.3590392E3,5.225567E3,1.3170432E4,4.6487725E3,1.2572465E3,6.443714E2,2.2536107E2,1.7860264E3],"tree_param":{"num_deleted":"0","num_feature":"77","num_nodes":"31","size_leaf_vector":"1"}},{"base_weights":[9.420824E-3,3.682332E-1,-1.3512428E-1,5.2660227E-1,8.577125E-2,-4.0930286E-1,1.1272088E-1,3.5160935E-1,7.175297E-1,4.176932E-1,-8.681222E-2,5.7578888E-2,-5.155734E-1,-1.4948693E-1,2.0247014E-1,4.426986E-3,-2.7146982E-3,7.33025E-3,-1.8997323E-2,4.641841E-3,-1.1796001E-2,-3.8379075E-3,1.8578734E-3,-7.1450695E-3,1.9709817E-3,1.3019926E-4,-6.313003E-3,-3.8382816E-3,2.0390511E-3,5.576907E-3,1.3290036E-3],"categories":[],"categories_nodes":[],"categories_segments":[],"categories_sizes":[],"default_left":[1,1,1,0,1,1,0,0,0,1,1,1,0,0,0,0,0,0,0,0,0,0,0,0,0,0,0,0,0,0,0],"id":23,"left_children":[1,3,5,7,9,11,13,15,17,19,21,23,25,27,29,-1,-1,-1,-1,-1,-1,-1,-1,-1,-1,-1,-1,-1,-1,-1,-1],"loss_changes":[2.8322876E3,7.0082153E2,2.6453208E3,3.3406616E2,3.2340494E2,9.175093E2,4.8118872E2,2.9828278E2,1.962644E2,1.4378955E2,3.00638E2,3.689079E2,9.217097E2,4.3189758E2,3.7561896E2,0E0,0E0,0E0,0E0,0E0,0E0,0E0,0E0,0E0,0E0,0E0,0E0,0E0,0E0,0E0,0E0],"parents":[2147483647,0,0,1,1,2,2,3,3,4,4,5,5,6,6,7,7,8,8,9,9,10,10,11,11,12,12,13,13,14,14],"right_children":[2,4,6,8,10,12,14,16,18,20,22,24,26,28,30,-1,-1,-1,-1,-1,-1,-1,-1,-1,-1,-1,-1,-1,-1,-1,-1],"split_conditions":[9.7E1,7.275E1,5.7E1,9.84E1,9.5666664E1,1.13E2,6.875E1,1.44E2,1E0,1.82E2,8.45E1,2.8E1,9.725E1,7.7E1,5.8E1,4.426986E-3,-2.7146982E-3,7.33025E-3,-1.8997323E-2,4.641841E-3,-1.1796001E-2,-3.8379075E-3,1.8578734E-3,-7.1450695E-3,1.9709817E-3,1.3019926E-4,-6.313003E-3,-3.8382816E-3,2.0390511E-3,5.576907E-3,1.3290036E-3],"split_indices":[5,26,0,3,20,6,14,23,50,6,14,0,20,0,7,0,0,0,0,0,0,0,0,0,0,0,0,0,0,0,0],"split_type":[0,0,0,0,0,0,0,0,0,0,0,0,0,0,0,0,0,0,0,0,0,0,0,0,0,0,0,0,0,0,0],"sum_hessian":[5.4600875E4,1.5680391E4,3.8920484E4,1.0043815E4,5.636575E3,1.8479871E4,2.0440615E4,5.2462915E3,4.7975244E3,1.9291953E3,3.70738E3,3.4248538E3,1.5055018E4,5.2091885E3,1.5231426E4,4.5790537E3,6.672376E2,4.771099E3,2.642498E1,1.8766193E3,5.257615E1,1.775714E3,1.931666E3,5.2180835E2,2.9030454E3,2.702812E3,1.2352205E4,3.1337769E3,2.0754119E3,2.4898652E3,1.2741561E4],"tree_param":{"num_deleted":"0","num_feature":"77","num_nodes":"31","size_leaf_vector":"1"}},{"base_weights":[-1.1502397E-2,-1.9634652E-1,3.4788147E-1,-3.7040508E-1,6.533746E-2,5.5067056E-1,1.22707136E-1,9.278755E-2,-4.7056976E-1,3.028826E-1,-7.148101E-2,7.9526544E-1,4.638082E-1,-3.5167116E-1,3.523054E-1,-3.2056603E-3,3.0169326E-3,-8.21601E-3,-3.5898539E-3,1.4685733E-3,6.0191047E-3,-1.1043674E-3,8.194724E-3,8.102817E-3,-1.7666357E-2,4.8259697E-3,-1.3980276E-2,3.529357E-3,-5.306887E-3,1.3276591E-3,5.355206E-3],"categories":[],"categories_nodes":[],"categories_segments":[],"categories_sizes":[],"default_left":[0,1,1,1,1,0,1,1,1,0,1,0,1,0,1,0,0,0,0,0,0,0,0,0,0,0,0,0,0,0,0],"id":24,"left_children":[1,3,5,7,9,11,13,15,17,19,21,23,25,27,29,-1,-1,-1,-1,-1,-1,-1,-1,-1,-1,-1,-1,-1,-1,-1,-1],"loss_changes":[3.5914836E3,1.6266494E3,8.376343E2,9.954192E2,4.637913E2,2.031997E2,9.484187E2,3.2941833E2,6.8895483E2,2.423992E2,3.1352478E2,9.9052E1,2.5002368E2,3.586335E2,2.352442E2,0E0,0E0,0E0,0E0,0E0,0E0,0E0,0E0,0E0,0E0,0E0,0E0,0E0,0E0,0E0,0E0],"parents":[2147483647,0,0,1,1,2,2,3,3,4,4,5,5,6,6,7,7,8,8,9,9,10,10,11,11,12,12,13,13,14,14],"right_children":[2,4,6,8,10,12,14,16,18,20,22,24,26,28,30,-1,-1,-1,-1,-1,-1,-1,-1,-1,-1,-1,-1,-1,-1,-1,-1],"split_conditions":[1.8142857E1,6.3E1,9.79E1,1.11E2,1.27E2,9.5E1,5.3E1,8.2E1,3.6E1,9.2E1,2.2E1,1E0,1.98E2,9.6E1,1.94E1,-3.2056603E-3,3.0169326E-3,-8.21601E-3,-3.5898539E-3,1.4685733E-3,6.0191047E-3,-1.1043674E-3,8.194724E-3,8.102817E-3,-1.7666357E-2,4.8259697E-3,-1.3980276E-2,3.529357E-3,-5.306887E-3,1.3276591E-3,5.355206E-3],"split_indices":[17,0,5,6,6,5,0,13,0,3,4,35,22,18,17,0,0,0,0,0,0,0,0,0,0,0,0,0,0,0,0],"split_type":[0,0,0,0,0,0,0,0,0,0,0,0,0,0,0,0,0,0,0,0,0,0,0,0,0,0,0,0,0,0,0],"sum_hessian":[5.4062414E4,3.570284E4,1.8359574E4,2.1443037E4,1.4259801E4,9.65609E3,8.703483E3,3.810814E3,1.7632225E4,5.2133057E3,9.046495E3,2.5232036E3,7.1328857E3,2.8368284E3,5.8666553E3,1.2774055E3,2.5334084E3,4.2477173E3,1.3384507E4,3.4299626E3,1.7833429E3,8.670274E3,3.7622144E2,2.510248E3,1.2955805E1,7.0636216E3,6.926405E1,5.732007E2,2.2636277E3,2.6728242E3,3.1938313E3],"tree_param":{"num_deleted":"0","num_feature":"77","num_nodes":"31","size_leaf_vector":"1"}},{"base_weights":[1.6655361E-2,3.77949E-1,-1.2911186E-1,1.4024834E-1,5.404079E-1,-4.297348E-1,7.4221216E-2,4.0092045E-1,-1.08818896E-1,4.6911022E-1,9.5148045E-1,5.031446E-2,-5.61496E-1,3.7995172E-1,-4.790397E-2,4.3203444E-3,-1.915081E-2,-2.8168233E-3,4.7673434E-3,5.546373E-3,9.17305E-4,9.718296E-3,-1.6799534E-2,6.497818E-3,-1.4645044E-3,6.046723E-5,-6.7069507E-3,1.7933863E-3,6.035697E-3,-1.521447E-3,3.3375975E-3],"categories":[],"categories_nodes":[],"categories_segments":[],"categories_sizes":[],"default_left":[1,0,1,0,0,0,1,0,0,1,0,1,1,0,0,0,0,0,0,0,0,0,0,0,0,0,0,0,0,0,0],"id":25,"left_children":[1,3,5,7,9,11,13,15,17,19,21,23,25,27,29,-1,-1,-1,-1,-1,-1,-1,-1,-1,-1,-1,-1,-1,-1,-1,-1],"loss_changes":[2.8877195E3,6.0789795E2,2.3882734E3,4.1621835E2,2.7202954E2,9.97646E2,8.70422E2,2.2585956E2,3.3156958E2,2.569121E2,7.642761E1,4.0115942E2,7.673374E2,2.974997E2,6.623608E2,0E0,0E0,0E0,0E0,0E0,0E0,0E0,0E0,0E0,0E0,0E0,0E0,0E0,0E0,0E0,0E0],"parents":[2147483647,0,0,1,1,2,2,3,3,4,4,5,5,6,6,7,7,8,8,9,9,10,10,11,11,12,12,13,13,14,14],"right_children":[2,4,6,8,10,12,14,16,18,20,22,24,26,28,30,-1,-1,-1,-1,-1,-1,-1,-1,-1,-1,-1,-1,-1,-1,-1,-1],"split_conditions":[9.7E1,2E1,5.3E1,3E0,1E0,9.76E1,6.222222E1,1.21E2,7.8E1,9.3E1,1E0,5.6E1,1.11E2,8.1E1,2.2E1,4.3203444E-3,-1.915081E-2,-2.8168233E-3,4.7673434E-3,5.546373E-3,9.17305E-4,9.718296E-3,-1.6799534E-2,6.497818E-3,-1.4645044E-3,6.046723E-5,-6.7069507E-3,1.7933863E-3,6.035697E-3,-1.521447E-3,3.3375975E-3],"split_indices":[5,16,0,1,76,20,26,13,0,25,70,24,6,3,16,0,0,0,0,0,0,0,0,0,0,0,0,0,0,0,0],"split_type":[0,0,0,0,0,0,0,0,0,0,0,0,0,0,0,0,0,0,0,0,0,0,0,0,0,0,0,0,0,0,0],"sum_hessian":[5.4823523E4,1.57614375E4,3.9062086E4,6.4029243E3,9.358513E3,1.5761615E4,2.3300469E4,3.1299426E3,3.2729814E3,7.980982E3,1.377531E3,3.3930977E3,1.2368518E4,6.651912E3,1.6648557E4,3.0904827E3,3.9459946E1,2.5291013E3,7.438801E2,6.5034824E3,1.4774994E3,1.368589E3,8.942071E0,8.3862024E2,2.5544773E3,1.9946111E3,1.0373906E4,3.5105706E3,3.1413416E3,1.3079957E4,3.5686E3],"tree_param":{"num_deleted":"0","num_feature":"77","num_nodes":"31","size_leaf_vector":"1"}},{"base_weights":[-6.3271173E-3,-2.1139002E-1,2.5138825E-1,1.2962553E-1,-4.006831E-1,9.476032E-2,5.147374E-1,-1.9574149E-1,3.2860598E-1,-7.854274E-1,-2.6628557E-1,2.7775016E-1,-9.0969734E-2,-1.9611293E-2,5.235313E-1,-5.498576E-3,1.6428276E-3,6.1311307E-3,-3.2783073E-4,-9.139459E-3,6.253831E-4,-6.369056E-3,-1.1076911E-3,1.3757196E-3,5.8847954E-3,-1.9530593E-3,2.7906632E-3,6.3726334E-3,3.635557E-3],"categories":[],"categories_nodes":[],"categories_segments":[],"categories_sizes":[],"default_left":[1,1,0,0,1,1,0,1,1,0,1,0,0,0,1,0,0,0,0,0,0,0,0,0,0,0,0,0,0],"id":26,"left_children":[1,3,5,7,9,11,13,15,17,19,21,23,25,-1,27,-1,-1,-1,-1,-1,-1,-1,-1,-1,-1,-1,-1,-1,-1],"loss_changes":[2.8570999E3,1.9439937E3,9.873469E2,6.9604956E2,9.998303E2,5.1090073E2,1.9505884E2,5.2043304E2,6.8656415E2,5.469678E2,8.26562E2,3.2891754E2,2.8787433E2,0E0,1.6048486E2,0E0,0E0,0E0,0E0,0E0,0E0,0E0,0E0,0E0,0E0,0E0,0E0,0E0,0E0],"parents":[2147483647,0,0,1,1,2,2,3,3,4,4,5,5,6,6,7,7,8,8,9,9,10,10,11,11,12,12,14,14],"right_children":[2,4,6,8,10,12,14,16,18,20,22,24,26,-1,28,-1,-1,-1,-1,-1,-1,-1,-1,-1,-1,-1,-1,-1,-1],"split_conditions":[6.3E1,9.7333336E1,2.1E1,8.8E1,3.6E1,1.36E2,4.225E1,9.806E1,6.3E1,9.903333E1,6.8E1,9.2E1,7.9E1,-1.9611293E-2,9.8E1,-5.498576E-3,1.6428276E-3,6.1311307E-3,-3.2783073E-4,-9.139459E-3,6.253831E-4,-6.369056E-3,-1.1076911E-3,1.3757196E-3,5.8847954E-3,-1.9530593E-3,2.7906632E-3,6.3726334E-3,3.635557E-3],"split_indices":[0,20,16,3,0,6,26,11,24,11,12,3,24,0,5,0,0,0,0,0,0,0,0,0,0,0,0,0,0],"split_type":[0,0,0,0,0,0,0,0,0,0,0,0,0,0,0,0,0,0,0,0,0,0,0,0,0,0,0,0,0],"sum_hessian":[5.4059484E4,3.0107404E4,2.395208E4,1.0745144E4,1.936226E4,1.5023382E4,8.928697E3,4.075694E3,6.6694497E3,5.0081455E3,1.4354114E4,7.569728E3,7.453654E3,2.9627045E1,8.89907E3,2.055575E3,2.0201191E3,3.7324304E3,2.9370193E3,4.349895E3,6.582506E2,4.239087E3,1.0115028E4,5.2206567E3,2.3490718E3,5.817098E3,1.6365555E3,5.1941543E3,3.704916E3],"tree_param":{"num_deleted":"0","num_feature":"77","num_nodes":"29","size_leaf_vector":"1"}},{"base_weights":[-4.735257E-3,2.591251E-1,-1.7567685E-1,2.4386326E-2,4.35406E-1,-4.5298147E-1,2.9817866E-2,-6.9259256E-2,6.929481E-1,5.292558E-1,9.112406E-2,1.2133231E-1,-5.5755854E-1,-2.0341392E-1,2.1728939E-1,2.1640086E-3,-2.0756444E-3,9.648068E-3,2.4553796E-3,4.866509E-3,1.0533253E-2,-3.959379E-3,3.1746754E-3,-1.3075088E-3,7.6266644E-3,-5.9469335E-4,-6.9635552E-3,2.239697E-3,-3.4553476E-3,1.3510657E-3,6.6001E-3],"categories":[],"categories_nodes":[],"categories_segments":[],"categories_sizes":[],"default_left":[1,0,1,0,1,0,0,0,1,1,1,1,1,1,1,0,0,0,0,0,0,0,0,0,0,0,0,0,0,0,0],"id":27,"left_children":[1,3,5,7,9,11,13,15,17,19,21,23,25,27,29,-1,-1,-1,-1,-1,-1,-1,-1,-1,-1,-1,-1,-1,-1,-1,-1],"loss_changes":[2.445594E3,8.8153625E2,1.8756504E3,5.7335046E2,3.9253027E2,8.4192334E2,8.265186E2,3.1705948E2,1.3517883E2,2.1091309E2,2.8809894E2,3.4972314E2,8.185603E2,5.1177164E2,3.8038824E2,0E0,0E0,0E0,0E0,0E0,0E0,0E0,0E0,0E0,0E0,0E0,0E0,0E0,0E0,0E0,0E0],"parents":[2147483647,0,0,1,1,2,2,3,3,4,4,5,5,6,6,7,7,8,8,9,9,10,10,11,11,12,12,13,13,14,14],"right_children":[2,4,6,8,10,12,14,16,18,20,22,24,26,28,30,-1,-1,-1,-1,-1,-1,-1,-1,-1,-1,-1,-1,-1,-1,-1,-1],"split_conditions":[9.77E1,1.78E1,5.3E1,9.91E1,7.1E1,9.74E1,7.1E1,9.6E1,1.7E1,1.06E2,8.7E1,9.9E1,1.15E2,5.1E1,2.025E1,2.1640086E-3,-2.0756444E-3,9.648068E-3,2.4553796E-3,4.866509E-3,1.0533253E-2,-3.959379E-3,3.1746754E-3,-1.3075088E-3,7.6266644E-3,-5.9469335E-4,-6.9635552E-3,2.239697E-3,-3.4553476E-3,1.3510657E-3,6.6001E-3],"split_indices":[5,17,0,11,24,20,12,5,4,12,13,10,6,24,17,0,0,0,0,0,0,0,0,0,0,0,0,0,0,0,0],"split_type":[0,0,0,0,0,0,0,0,0,0,0,0,0,0,0,0,0,0,0,0,0,0,0,0,0,0,0,0,0,0,0],"sum_hessian":[5.4218203E4,2.1313082E4,3.290512E4,9.144309E3,1.2168773E4,1.400651E4,1.8898611E4,8.02109E3,1.1232185E3,9.559041E3,2.6097327E3,2.1560547E3,1.1850454E4,8.419044E3,1.0479568E4,2.6138982E3,5.4071914E3,6.958518E2,4.2736673E2,8.845686E3,7.133555E2,8.2611755E2,1.783615E3,1.5477344E3,6.083204E2,2.5847693E3,9.265686E3,2.098944E3,6.3200996E3,8.842915E3,1.636653E3],"tree_param":{"num_deleted":"0","num_feature":"77","num_nodes":"31","size_leaf_vector":"1"}},{"base_weights":[-9.1388274E-4,-1.6186494E-1,3.2553118E-1,-2.6544958E-1,1.8615095E-1,6.7780966E-1,1.9482741E-1,3.3199885E-1,-3.2935125E-1,4.4527426E-1,8.177093E-3,5.87911E-1,9.7467566E-1,-1.13469064E-1,3.9957657E-1,-1.934543E-2,3.8451084E-3,5.3746894E-4,-4.0821293E-3,-1.690243E-3,5.312034E-3,-3.8553178E-4,1.3865161E-2,6.67271E-3,2.16078E-3,-1.7146856E-2,1.00334715E-2,5.110235E-3,-2.826813E-3,-1.9352324E-2,4.1543795E-3],"categories":[],"categories_nodes":[],"categories_segments":[],"categories_sizes":[],"default_left":[0,1,1,0,1,1,1,0,1,1,1,1,0,0,0,0,0,0,0,0,0,0,0,0,0,0,0,0,0,0,0],"id":28,"left_children":[1,3,5,7,9,11,13,15,17,19,21,23,25,27,29,-1,-1,-1,-1,-1,-1,-1,-1,-1,-1,-1,-1,-1,-1,-1,-1],"loss_changes":[2.8517207E3,1.3107927E3,8.240731E2,1.0699722E3,3.8406912E2,1.26651855E2,8.2583997E2,3.2211298E2,7.652207E2,1.7963037E2,3.2011673E2,1.0884094E2,8.917102E1,5.515023E2,2.9118945E2,0E0,0E0,0E0,0E0,0E0,0E0,0E0,0E0,0E0,0E0,0E0,0E0,0E0,0E0,0E0,0E0],"parents":[2147483647,0,0,1,1,2,2,3,3,4,4,5,5,6,6,7,7,8,8,9,9,10,10,11,11,12,12,13,13,14,14],"right_children":[2,4,6,8,10,12,14,16,18,20,22,24,26,28,30,-1,-1,-1,-1,-1,-1,-1,-1,-1,-1,-1,-1,-1,-1,-1,-1],"split_conditions":[1.825E1,7.3E1,9.5E1,9.5833336E1,7.3E1,2.1E1,5.9E1,8.5E1,1.11E2,6.0666668E1,1.03E2,7.5666664E1,9.732E1,1.12166664E2,5.4833332E1,-1.934543E-2,3.8451084E-3,5.3746894E-4,-4.0821293E-3,-1.690243E-3,5.312034E-3,-3.8553178E-4,1.3865161E-2,6.67271E-3,2.16078E-3,-1.7146856E-2,1.00334715E-2,5.110235E-3,-2.826813E-3,-1.9352324E-2,4.1543795E-3],"split_indices":[17,0,5,20,25,4,0,18,6,14,12,26,10,23,14,0,0,0,0,0,0,0,0,0,0,0,0,0,0,0,0],"split_type":[0,0,0,0,0,0,0,0,0,0,0,0,0,0,0,0,0,0,0,0,0,0,0,0,0,0,0,0,0,0,0],"sum_hessian":[5.4274516E4,3.6354367E4,1.7920148E4,2.8018262E4,8.336105E3,4.845182E3,1.3074967E4,2.7048872E3,2.5313375E4,3.3907202E3,4.945385E3,3.7261406E3,1.1190417E3,5.2164385E3,7.8585283E3,5.9194355E1,2.6456929E3,4.319219E3,2.0994154E4,4.1443008E2,2.9762903E3,4.7843965E3,1.6098839E2,3.0672263E3,6.589142E2,1.01958475E1,1.1088458E3,1.1099865E3,4.106452E3,5.096774E1,7.8075605E3],"tree_param":{"num_deleted":"0","num_feature":"77","num_nodes":"31","size_leaf_vector":"1"}},{"base_weights":[-7.5254426E-3,-2.1174288E-1,2.456462E-1,1.4951783E-1,-4.1698396E-1,1.1748887E-1,5.589488E-1,-3.4079346E-1,2.8569102E-1,-3.9747056E-2,-5.542345E-1,7.164206E-1,7.290149E-2,-4.4205624E-1,5.846993E-1,-9.4805047E-4,-8.859096E-3,6.4637135E-3,1.4541191E-3,-1.1526619E-3,7.97531E-3,-9.111764E-3,-4.3032053E-3,9.401857E-3,-1.1345408E-3,-1.0623311E-3,2.7311146E-3,6.971998E-3,-1.2710997E-2,5.1894463E-3,9.365385E-3],"categories":[],"categories_nodes":[],"categories_segments":[],"categories_sizes":[],"default_left":[1,1,0,0,1,0,0,0,0,0,1,0,0,1,0,0,0,0,0,0,0,0,0,0,0,0,0,0,0,0,0],"id":29,"left_children":[1,3,5,7,9,11,13,15,17,19,21,23,25,27,29,-1,-1,-1,-1,-1,-1,-1,-1,-1,-1,-1,-1,-1,-1,-1,-1],"loss_changes":[2.7959873E3,2.2200088E3,9.686041E2,7.24255E2,9.878987E2,4.568099E2,1.812522E2,3.14863E2,4.286147E2,3.218161E2,6.1696826E2,2.2123065E2,5.72466E2,1.6845915E2,1.556377E2,0E0,0E0,0E0,0E0,0E0,0E0,0E0,0E0,0E0,0E0,0E0,0E0,0E0,0E0,0E0,0E0],"parents":[2147483647,0,0,1,1,2,2,3,3,4,4,5,5,6,6,7,7,8,8,9,9,10,10,11,11,12,12,13,13,14,14],"right_children":[2,4,6,8,10,12,14,16,18,20,22,24,26,28,30,-1,-1,-1,-1,-1,-1,-1,-1,-1,-1,-1,-1,-1,-1,-1,-1],"split_conditions":[6.3E1,9.7333336E1,1.9333334E1,8E1,1.17E2,6.4E1,4.9E1,9.7E1,6.7666664E1,1E0,3.6E1,1.48E2,7.7E1,8.7E1,1E0,-9.4805047E-4,-8.859096E-3,6.4637135E-3,1.4541191E-3,-1.1526619E-3,7.97531E-3,-9.111764E-3,-4.3032053E-3,9.401857E-3,-1.1345408E-3,-1.0623311E-3,2.7311146E-3,6.971998E-3,-1.2710997E-2,5.1894463E-3,9.365385E-3],"split_indices":[0,20,17,3,6,0,26,18,26,76,0,6,0,6,76,0,0,0,0,0,0,0,0,0,0,0,0,0,0,0,0],"split_type":[0,0,0,0,0,0,0,0,0,0,0,0,0,0,0,0,0,0,0,0,0,0,0,0,0,0,0,0,0,0,0],"sum_hessian":[5.4075477E4,2.9933947E4,2.4141531E4,1.0843368E4,1.909058E4,1.7137379E4,7.004152E3,2.3546738E3,8.488693E3,5.0954517E3,1.3995128E4,1.1837522E3,1.5953627E4,1.7387517E2,6.830277E3,1.6253864E3,7.2928754E2,2.3729946E3,6.115699E3,4.6765635E3,4.1888828E2,3.6011147E3,1.0394013E4,9.3309436E2,2.5065782E2,8.417844E3,7.5357837E3,7.2861755E1,1.0101341E2,5.7613423E3,1.0689344E3],"tree_param":{"num_deleted":"0","num_feature":"77","num_nodes":"31","size_leaf_vector":"1"}},{"base_weights":[-1.3863762E-2,-1.6770124E-1,2.9339522E-1,1.7092483E-1,-3.1207463E-1,2.1138875E-2,4.3722418E-1,4.4568506E-1,2.1573162E-2,-8.060988E-1,-2.0802557E-1,5.365837E-1,-1.9685678E-1,2.7668232E-1,5.772579E-1,4.6463576E-3,-1.8807972E-2,4.7775108E-4,-1.9082958E-2,-9.090683E-3,1.876843E-3,-2.9333052E-3,1.7605333E-3,6.559375E-3,-5.552478E-3,4.744036E-3,-3.517598E-3,-5.677475E-3,3.1234422E-3,6.304135E-3,-3.350436E-3],"categories":[],"categories_nodes":[],"categories_segments":[],"categories_sizes":[],"default_left":[0,0,1,1,1,0,0,0,1,0,0,1,1,0,1,0,0,0,0,0,0,0,0,0,0,0,0,0,0,0,0],"id":30,"left_children":[1,3,5,7,9,11,13,15,17,19,21,23,25,27,29,-1,-1,-1,-1,-1,-1,-1,-1,-1,-1,-1,-1,-1,-1,-1,-1],"loss_changes":[2.545516E3,1.7548379E3,7.030382E2,4.3970444E2,1.2921799E3,6.9887683E2,2.6305103E2,1.6676843E2,3.499556E2,4.4881616E2,6.8141284E2,2.4179175E2,4.5436835E2,1.6520697E2,3.0488843E2,0E0,0E0,0E0,0E0,0E0,0E0,0E0,0E0,0E0,0E0,0E0,0E0,0E0,0E0,0E0,0E0],"parents":[2147483647,0,0,1,1,2,2,3,3,4,4,5,5,6,6,7,7,8,8,9,9,10,10,11,11,12,12,13,13,14,14],"right_children":[2,4,6,8,10,12,14,16,18,20,22,24,26,28,30,-1,-1,-1,-1,-1,-1,-1,-1,-1,-1,-1,-1,-1,-1,-1,-1],"split_conditions":[1.8142857E1,9.7333336E1,5.7E1,5.8E1,3.6E1,7.7E1,2E1,1E0,1.09E2,1E0,7.7E1,9.98E1,9.8E1,4.1E1,7.8E1,4.6463576E-3,-1.8807972E-2,4.7775108E-4,-1.9082958E-2,-9.090683E-3,1.876843E-3,-2.9333052E-3,1.7605333E-3,6.559375E-3,-5.552478E-3,4.744036E-3,-3.517598E-3,-5.677475E-3,3.1234422E-3,6.304135E-3,-3.350436E-3],"split_indices":[17,20,0,24,0,25,4,59,7,49,0,20,6,24,24,0,0,0,0,0,0,0,0,0,0,0,0,0,0,0,0],"split_type":[0,0,0,0,0,0,0,0,0,0,0,0,0,0,0,0,0,0,0,0,0,0,0,0,0,0,0,0,0,0,0],"sum_hessian":[5.3851473E4,3.5887562E4,1.796391E4,1.0724972E4,2.516259E4,6.212813E3,1.1751098E4,3.7730598E3,6.9519116E3,4.373611E3,2.0788979E4,1.8470879E3,4.365725E3,5.4807627E3,6.270335E3,3.7445881E3,2.847172E1,6.861225E3,9.06866E1,3.9640571E3,4.095538E2,1.7013344E4,3.7756335E3,1.6666157E3,1.8047217E2,8.165758E2,3.5491494E3,2.197386E2,5.261024E3,5.9267256E3,3.4360898E2],"tree_param":{"num_deleted":"0","num_feature":"77","num_nodes":"31","size_leaf_vector":"1"}},{"base_weights":[-1.4042702E-2,2.4211937E-1,-1.7997111E-1,7.49464E-2,4.9016792E-1,3.9441437E-2,-3.2683277E-1,-1.5817049E-1,2.1873121E-1,5.935401E-1,2.2579585E-1,-2.0649193E-1,2.2539927E-1,-4.2989028E-1,-2.3074178E-2,1.6174569E-3,-3.5257998E-3,5.888971E-3,1.1643139E-3,3.3502467E-3,7.074747E-3,-1.9126078E-2,2.511811E-3,-3.2462208E-3,9.96502E-4,6.5843845E-3,1.2465885E-3,2.3950552E-4,-5.114238E-3,2.7432316E-3,-1.5446971E-3],"categories":[],"categories_nodes":[],"categories_segments":[],"categories_sizes":[],"default_left":[1,0,1,1,1,1,1,0,0,0,0,0,0,0,0,0,0,0,0,0,0,0,0,0,0,0,0,0,0,0,0],"id":31,"left_children":[1,3,5,7,9,11,13,15,17,19,21,23,25,27,29,-1,-1,-1,-1,-1,-1,-1,-1,-1,-1,-1,-1,-1,-1,-1,-1],"loss_changes":[2.2878325E3,8.767069E2,1.053026E3,4.239439E2,2.3163184E2,5.991338E2,6.1225635E2,3.0021622E2,2.9543567E2,1.786792E2,1.2956183E2,2.0419888E2,3.2457083E2,5.412095E2,1.9390154E2,0E0,0E0,0E0,0E0,0E0,0E0,0E0,0E0,0E0,0E0,0E0,0E0,0E0,0E0,0E0,0E0],"parents":[2147483647,0,0,1,1,2,2,3,3,4,4,5,5,6,6,7,7,8,8,9,9,10,10,11,11,12,12,13,13,14,14],"right_children":[2,4,6,8,10,12,14,16,18,20,22,24,26,28,30,-1,-1,-1,-1,-1,-1,-1,-1,-1,-1,-1,-1,-1,-1,-1,-1],"split_conditions":[9.78E1,2.1E1,7.2E1,7.1E1,7.25E1,7E1,1.59E2,6.8E1,1.12166664E2,9E1,1.02E2,8E1,5.4E1,9.6E1,1.56E2,1.6174569E-3,-3.5257998E-3,5.888971E-3,1.1643139E-3,3.3502467E-3,7.074747E-3,-1.9126078E-2,2.511811E-3,-3.2462208E-3,9.96502E-4,6.5843845E-3,1.2465885E-3,2.3950552E-4,-5.114238E-3,2.7432316E-3,-1.5446971E-3],"split_indices":[5,16,7,12,26,12,22,7,23,3,6,3,7,18,6,0,0,0,0,0,0,0,0,0,0,0,0,0,0,0,0],"split_type":[0,0,0,0,0,0,0,0,0,0,0,0,0,0,0,0,0,0,0,0,0,0,0,0,0,0,0,0,0,0,0],"sum_hessian":[5.382299E4,2.1155678E4,3.2667309E4,1.2642123E4,8.513556E3,1.3096172E4,1.9571137E4,4.8201333E3,7.82199E3,6.1159033E3,2.3976519E3,5.636361E3,7.459811E3,1.4610161E4,4.9609766E3,1.8201405E3,2.9999927E3,1.6894662E3,6.132524E3,1.8759865E3,4.239917E3,2.5922363E1,2.3717295E3,4.069298E3,1.5670626E3,1.4039297E3,6.0558813E3,2.2233652E3,1.2386796E4,1.5171993E3,3.443777E3],"tree_param":{"num_deleted":"0","num_feature":"77","num_nodes":"31","size_leaf_vector":"1"}},{"base_weights":[1.2916347E-2,-1.9369507E-1,2.6756394E-1,2.2304039E-1,-3.558734E-1,7.904174E-2,4.1357175E-1,5.835343E-1,5.176485E-2,6.157266E-2,-5.1834697E-1,8.1018597E-1,2.6965717E-2,3.0027846E-1,6.012861E-1,6.251555E-3,-6.0336385E-3,-1.1370004E-3,3.753804E-3,-4.5816805E-3,2.936658E-3,-9.028626E-3,-3.8018804E-3,9.008645E-3,-1.7792705E-2,-2.973244E-3,1.8855297E-3,4.1684895E-3,1.4937982E-3,8.004049E-3,4.5373854E-3],"categories":[],"categories_nodes":[],"categories_segments":[],"categories_sizes":[],"default_left":[1,0,0,1,1,0,0,1,1,0,1,0,0,1,0,0,0,0,0,0,0,0,0,0,0,0,0,0,0,0,0],"id":32,"left_children":[1,3,5,7,9,11,13,15,17,19,21,23,25,27,29,-1,-1,-1,-1,-1,-1,-1,-1,-1,-1,-1,-1,-1,-1,-1,-1],"loss_changes":[2.866994E3,2.0333013E3,6.7134644E2,5.19579E2,1.469331E3,4.0497644E2,2.912124E2,1.3474597E2,3.0644397E2,7.320036E2,8.2628125E2,1.684292E2,5.216045E2,1.5030035E2,1.4993835E2,0E0,0E0,0E0,0E0,0E0,0E0,0E0,0E0,0E0,0E0,0E0,0E0,0E0,0E0,0E0,0E0],"parents":[2147483647,0,0,1,1,2,2,3,3,4,4,5,5,6,6,7,7,8,8,9,9,10,10,11,11,12,12,13,13,14,14],"right_children":[2,4,6,8,10,12,14,16,18,20,22,24,26,28,30,-1,-1,-1,-1,-1,-1,-1,-1,-1,-1,-1,-1,-1,-1,-1,-1],"split_conditions":[6.3E1,9.7333336E1,7.1E1,5.8E1,6.8E1,6.4E1,2E1,9.4E1,8.8E1,8.1E1,3.6E1,1.5E2,7.3E1,1.5E0,5.8E1,6.251555E-3,-6.0336385E-3,-1.1370004E-3,3.753804E-3,-4.5816805E-3,2.936658E-3,-9.028626E-3,-3.8018804E-3,9.008645E-3,-1.7792705E-2,-2.973244E-3,1.8855297E-3,4.1684895E-3,1.4937982E-3,8.004049E-3,4.5373854E-3],"split_indices":[0,20,12,24,7,0,4,7,12,3,0,21,0,8,24,0,0,0,0,0,0,0,0,0,0,0,0,0,0,0,0],"split_type":[0,0,0,0,0,0,0,0,0,0,0,0,0,0,0,0,0,0,0,0,0,0,0,0,0,0,0,0,0,0,0],"sum_hessian":[5.448664E4,3.0078574E4,2.4408064E4,8.424349E3,2.1654227E4,1.0657394E4,1.3750671E4,2.7099343E3,5.7144146E3,6.065393E3,1.5588833E4,7.0539355E2,9.952E3,8.581756E3,5.1689146E3,2.6198528E3,9.008172E1,3.7799368E3,1.9344777E3,1.8704718E3,4.1949214E3,4.1157676E3,1.1473065E4,6.8316077E2,2.2232794E1,3.3070996E3,6.6449004E3,4.83586E3,3.745896E3,2.1933335E3,2.975581E3],"tree_param":{"num_deleted":"0","num_feature":"77","num_nodes":"31","size_leaf_vector":"1"}},{"base_weights":[5.4679913E-3,-1.5501918E-1,3.2215205E-1,-2.468677E-1,2.7613163E-1,5.600103E-1,1.44827E-1,1.6457988E-1,-3.4128666E-1,3.4072956E-1,-2.9710832E-1,4.8531753E-1,9.4407314E-1,-1.2344231E-1,4.609987E-1,5.1095854E-3,-1.8504717E-4,5.6526763E-4,-4.226068E-3,3.8231777E-3,-4.8282435E-3,1.2107484E-4,-1.960119E-2,7.0588086E-3,2.924727E-3,-1.678241E-2,9.677925E-3,-2.5802115E-3,2.9127614E-3,2.2363327E-3,7.2641205E-3],"categories":[],"categories_nodes":[],"categories_segments":[],"categories_sizes":[],"default_left":[0,1,1,0,0,0,1,0,1,0,0,0,0,1,1,0,0,0,0,0,0,0,0,0,0,0,0,0,0,0,0],"id":33,"left_children":[1,3,5,7,9,11,13,15,17,19,21,23,25,27,29,-1,-1,-1,-1,-1,-1,-1,-1,-1,-1,-1,-1,-1,-1,-1,-1],"loss_changes":[2.7608623E3,1.4276217E3,7.697805E2,1.1548701E3,2.3463602E2,2.2142627E2,8.887349E2,3.5225616E2,7.824983E2,1.9519159E2,3.313855E2,2.7662756E2,8.126758E1,3.163156E2,3.0170996E2,0E0,0E0,0E0,0E0,0E0,0E0,0E0,0E0,0E0,0E0,0E0,0E0,0E0,0E0,0E0,0E0],"parents":[2147483647,0,0,1,1,2,2,3,3,4,4,5,5,6,6,7,7,8,8,9,9,10,10,11,11,12,12,13,13,14,14],"right_children":[2,4,6,8,10,12,14,16,18,20,22,24,26,28,30,-1,-1,-1,-1,-1,-1,-1,-1,-1,-1,-1,-1,-1,-1,-1,-1],"split_conditions":[1.8142857E1,7.7E1,6.7E1,9.675E1,9.1E1,1E0,6.5E1,5.8E1,1.11E2,2.1E1,8.1E1,9.771429E1,6.1E1,9.4E1,2.025E1,5.1095854E-3,-1.8504717E-4,5.6526763E-4,-4.226068E-3,3.8231777E-3,-4.8282435E-3,1.2107484E-4,-1.960119E-2,7.0588086E-3,2.924727E-3,-1.678241E-2,9.677925E-3,-2.5802115E-3,2.9127614E-3,2.2363327E-3,7.2641205E-3],"split_indices":[17,0,7,20,0,76,0,24,6,16,7,20,3,12,17,0,0,0,0,0,0,0,0,0,0,0,0,0,0,0,0],"split_type":[0,0,0,0,0,0,0,0,0,0,0,0,0,0,0,0,0,0,0,0,0,0,0,0,0,0,0,0,0,0,0],"sum_hessian":[5.431505E4,3.6045832E4,1.8269219E4,2.9718123E4,6.32771E3,7.7985425E3,1.0470676E4,5.544573E3,2.4173549E4,5.689159E3,6.38551E2,6.5347847E3,1.2637582E3,5.6633896E3,4.8072866E3,1.9179238E3,3.6266492E3,4.1008306E3,2.0072719E4,5.4178516E3,2.713074E2,5.396028E2,9.8948204E1,3.0434165E3,3.491368E3,9.699974E0,1.2540582E3,4.27824E3,1.3851497E3,2.5416667E3,2.2656196E3],"tree_param":{"num_deleted":"0","num_feature":"77","num_nodes":"31","size_leaf_vector":"1"}},{"base_weights":[-1.5180148E-2,-2.3198074E-1,1.9852209E-1,-4.5576096E-1,2.6240798E-2,1.0059563E-2,3.4074038E-1,-1.3399722E-1,-6.4081293E-1,5.867717E-1,-1.1812282E-1,3.1866413E-1,-9.6870296E-2,2.5202617E-1,6.274547E-1,-7.916772E-3,-1.7865624E-4,-6.9872555E-3,6.0514983E-4,7.450481E-3,-7.862865E-4,2.6882081E-3,-3.3096932E-3,5.1435363E-3,5.432347E-5,1.2812518E-2,-1.1765488E-3,5.5738306E-4,3.907764E-3,6.470197E-3,-1.9457605E-2],"categories":[],"categories_nodes":[],"categories_segments":[],"categories_sizes":[],"default_left":[1,0,0,1,1,1,0,1,0,1,0,0,0,1,0,0,0,0,0,0,0,0,0,0,0,0,0,0,0,0,0],"id":34,"left_children":[1,3,5,7,9,11,13,15,17,19,21,23,25,27,29,-1,-1,-1,-1,-1,-1,-1,-1,-1,-1,-1,-1,-1,-1,-1,-1],"loss_changes":[2.4942424E3,1.5448087E3,7.262372E2,8.517097E2,1.00466125E3,3.851845E2,3.917057E2,3.9885425E2,3.6987402E2,2.685968E2,8.128838E2,1.8363168E2,2.4723874E2,3.2095844E2,1.8478247E2,0E0,0E0,0E0,0E0,0E0,0E0,0E0,0E0,0E0,0E0,0E0,0E0,0E0,0E0,0E0,0E0],"parents":[2147483647,0,0,1,1,2,2,3,3,4,4,5,5,6,6,7,7,8,8,9,9,10,10,11,11,12,12,13,13,14,14],"right_children":[2,4,6,8,10,12,14,16,18,20,22,24,26,28,30,-1,-1,-1,-1,-1,-1,-1,-1,-1,-1,-1,-1,-1,-1,-1,-1],"split_conditions":[6E1,8E1,7.1E1,6.95E1,1.07E2,9.65E1,1.9E1,2.8E1,1E0,3E0,9.76E1,3E0,9.64E1,9.81E1,1E0,-7.916772E-3,-1.7865624E-4,-6.9872555E-3,6.0514983E-4,7.450481E-3,-7.862865E-4,2.6882081E-3,-3.3096932E-3,5.1435363E-3,5.432347E-5,1.2812518E-2,-1.1765488E-3,5.5738306E-4,3.907764E-3,6.470197E-3,-1.9457605E-2],"split_indices":[0,12,12,26,6,20,15,0,49,1,20,1,10,11,72,0,0,0,0,0,0,0,0,0,0,0,0,0,0,0,0],"split_type":[0,0,0,0,0,0,0,0,0,0,0,0,0,0,0,0,0,0,0,0,0,0,0,0,0,0,0,0,0,0,0],"sum_hessian":[5.3830836E4,2.6723943E4,2.7106893E4,1.4318004E4,1.240594E4,1.1662003E4,1.5444889E4,5.2311177E3,9.086886E3,2.5409214E3,9.865019E3,3.0023813E3,8.659622E3,1.1800776E4,3.6441123E3,7.8203394E2,4.449084E3,8.395089E3,6.9179724E2,2.0536826E3,4.872387E2,3.4989287E3,6.3660903E3,1.8451558E3,1.1572257E3,1.2614545E2,8.533477E3,4.891233E3,6.9095435E3,3.6184856E3,2.5626799E1],"tree_param":{"num_deleted":"0","num_feature":"77","num_nodes":"31","size_leaf_vector":"1"}},{"base_weights":[1.3063121E-2,3.4109518E-1,-1.1790369E-1,4.650771E-1,9.202542E-2,2.542234E-1,-2.1367247E-1,8.91616E-1,3.9069855E-1,-8.90161E-2,3.990598E-1,5.2601635E-1,8.1913926E-2,-4.6652567E-1,-1.0628223E-1,9.230646E-3,-1.8177595E-2,5.7115117E-3,1.9801862E-3,-1.7671146E-3,7.0134443E-3,-1.8596256E-2,4.352183E-3,5.5185575E-3,-1.8914567E-2,-7.065466E-4,5.4306705E-3,-7.4841944E-3,-3.3658114E-3,1.9173118E-3,-2.0335463E-3],"categories":[],"categories_nodes":[],"categories_segments":[],"categories_sizes":[],"default_left":[1,1,0,0,1,0,0,1,1,0,0,1,1,0,0,0,0,0,0,0,0,0,0,0,0,0,0,0,0,0,0],"id":35,"left_children":[1,3,5,7,9,11,13,15,17,19,21,23,25,27,29,-1,-1,-1,-1,-1,-1,-1,-1,-1,-1,-1,-1,-1,-1,-1,-1],"loss_changes":[2.3400027E3,4.79297E2,1.3871263E3,3.271245E2,2.877877E2,3.7232825E2,8.399486E2,1.3340222E2,3.0632532E2,2.2513565E2,1.5702649E2,1.9362885E2,3.4384155E2,3.363363E2,6.2883954E2,0E0,0E0,0E0,0E0,0E0,0E0,0E0,0E0,0E0,0E0,0E0,0E0,0E0,0E0,0E0,0E0],"parents":[2147483647,0,0,1,1,2,2,3,3,4,4,5,5,6,6,7,7,8,8,9,9,10,10,11,11,12,12,13,13,14,14],"right_children":[2,4,6,8,10,12,14,16,18,20,22,24,26,28,30,-1,-1,-1,-1,-1,-1,-1,-1,-1,-1,-1,-1,-1,-1,-1,-1],"split_conditions":[9.7E1,3E0,6.2444443E1,9.3E1,8.2E1,9.771429E1,6.8E1,1.79E2,1.2E2,2.1E1,9.67E1,9.1E1,8.3E1,1.246E2,9.74E1,9.230646E-3,-1.8177595E-2,5.7115117E-3,1.9801862E-3,-1.7671146E-3,7.0134443E-3,-1.8596256E-2,4.352183E-3,5.5185575E-3,-1.8914567E-2,-7.065466E-4,5.4306705E-3,-7.4841944E-3,-3.3658114E-3,1.9173118E-3,-2.0335463E-3],"split_indices":[5,1,26,5,12,20,12,6,23,4,2,7,12,23,20,0,0,0,0,0,0,0,0,0,0,0,0,0,0,0,0],"split_type":[0,0,0,0,0,0,0,0,0,0,0,0,0,0,0,0,0,0,0,0,0,0,0,0,0,0,0,0,0,0,0],"sum_hessian":[5.4458605E4,1.5540016E4,3.891859E4,1.0371527E4,5.1684883E3,7.963031E3,3.0955559E4,1.5347533E3,8.836774E3,3.2501904E3,1.9182979E3,3.0857708E3,4.8772603E3,9.223227E3,2.1732332E4,1.5188116E3,1.594167E1,4.558466E3,4.2783086E3,2.928116E3,3.2207443E2,2.820057E1,1.8900973E3,3.0550732E3,3.0697334E1,3.6644373E3,1.2128229E3,2.9047102E3,6.318516E3,5.3366143E3,1.6395719E4],"tree_param":{"num_deleted":"0","num_feature":"77","num_nodes":"31","size_leaf_vector":"1"}},{"base_weights":[-3.763501E-3,-1.5461072E-1,2.96508E-1,-3.1841218E-1,9.166325E-2,6.124573E-1,1.8325365E-1,-3.798159E-1,3.277766E-1,5.184565E-1,2.2362495E-2,5.282425E-1,9.8640245E-1,-1.0318503E-1,3.4782162E-1,-7.4724182E-3,-2.6548973E-3,7.466393E-3,4.8447528E-4,-8.691984E-4,6.7777676E-3,-1.2095522E-3,2.2261983E-3,5.5035735E-3,-7.96706E-3,-1.68092E-2,1.0133824E-2,-4.4641998E-3,1.1328855E-3,-1.9892367E-2,3.572207E-3],"categories":[],"categories_nodes":[],"categories_segments":[],"categories_sizes":[],"default_left":[0,1,1,0,1,0,1,1,0,1,0,1,0,1,0,0,0,0,0,0,0,0,0,0,0,0,0,0,0,0,0],"id":36,"left_children":[1,3,5,7,9,11,13,15,17,19,21,23,25,27,29,-1,-1,-1,-1,-1,-1,-1,-1,-1,-1,-1,-1,-1,-1,-1,-1],"loss_changes":[2.4544165E3,1.4554353E3,6.4729724E2,8.599839E2,4.2557797E2,1.4790088E2,6.29265E2,8.298318E2,2.1907294E2,1.9462518E2,3.560199E2,1.1507971E2,6.561456E1,3.6212448E2,1.8598901E2,0E0,0E0,0E0,0E0,0E0,0E0,0E0,0E0,0E0,0E0,0E0,0E0,0E0,0E0,0E0,0E0],"parents":[2147483647,0,0,1,1,2,2,3,3,4,4,5,5,6,6,7,7,8,8,9,9,10,10,11,11,12,12,13,13,14,14],"right_children":[2,4,6,8,10,12,14,16,18,20,22,24,26,28,30,-1,-1,-1,-1,-1,-1,-1,-1,-1,-1,-1,-1,-1,-1,-1,-1],"split_conditions":[1.8142857E1,6.3E1,9.5E1,1E0,1.19E2,1E0,5.7E1,3.6E1,3.8E1,7.2E1,7.8E1,1.44E2,1.02E2,9.82E1,8.4E1,-7.4724182E-3,-2.6548973E-3,7.466393E-3,4.8447528E-4,-8.691984E-4,6.7777676E-3,-1.2095522E-3,2.2261983E-3,5.5035735E-3,-7.96706E-3,-1.68092E-2,1.0133824E-2,-4.4641998E-3,1.1328855E-3,-1.9892367E-2,3.572207E-3],"split_indices":[17,0,5,49,22,76,0,0,0,13,0,13,22,10,18,0,0,0,0,0,0,0,0,0,0,0,0,0,0,0,0],"split_type":[0,0,0,0,0,0,0,0,0,0,0,0,0,0,0,0,0,0,0,0,0,0,0,0,0,0,0,0,0,0,0],"sum_hessian":[5.418632E4,3.6070105E4,1.8116217E4,2.1664268E4,1.4405838E4,4.775687E3,1.3340529E4,1.9786443E4,1.8778235E3,2.0085652E3,1.2397273E4,3.9039849E3,8.71702E2,4.8658857E3,8.474644E3,4.690882E3,1.5095562E4,7.4849927E2,1.1293242E3,4.1735492E2,1.5912102E3,7.2234688E3,5.1738047E3,3.8417854E3,6.2199474E1,7.1300926E0,8.6457196E2,1.8829011E3,2.9829846E3,3.1832777E1,8.442811E3],"tree_param":{"num_deleted":"0","num_feature":"77","num_nodes":"31","size_leaf_vector":"1"}},{"base_weights":[5.5199424E-3,-2.0391855E-1,2.11541E-1,1.6240829E-1,-4.086816E-1,8.952003E-2,5.0521165E-1,4.5400787E-2,6.685226E-1,-8.371633E-1,-2.8244412E-1,2.349214E-1,-8.7219425E-2,4.5758393E-1,9.625133E-1,-4.2569963E-3,1.6586644E-3,7.0448103E-3,-1.8219413E-2,-2.5204695E-3,-1.0355283E-2,1.6162058E-3,-4.054571E-3,5.513376E-3,1.3115909E-3,7.0704725E-3,-1.2512797E-3,4.6662823E-3,-1.912731E-2,-1.71482E-2,9.976417E-3],"categories":[],"categories_nodes":[],"categories_segments":[],"categories_sizes":[],"default_left":[1,1,0,0,1,1,0,1,1,0,1,0,0,0,0,0,0,0,0,0,0,0,0,0,0,0,0,0,0,0,0],"id":37,"left_children":[1,3,5,7,9,11,13,15,17,19,21,23,25,27,29,-1,-1,-1,-1,-1,-1,-1,-1,-1,-1,-1,-1,-1,-1,-1,-1],"loss_changes":[2.3446047E3,2.0213723E3,9.809735E2,5.712828E2,9.3335645E2,4.9765686E2,1.7277979E2,4.453707E2,1.6373529E2,4.5441406E2,7.2996716E2,3.4799054E2,2.6262653E2,1.5653723E2,7.366016E1,0E0,0E0,0E0,0E0,0E0,0E0,0E0,0E0,0E0,0E0,0E0,0E0,0E0,0E0,0E0,0E0],"parents":[2147483647,0,0,1,1,2,2,3,3,4,4,5,5,6,6,7,7,8,8,9,9,10,10,11,11,12,12,13,13,14,14],"right_children":[2,4,6,8,10,12,14,16,18,20,22,24,26,28,30,-1,-1,-1,-1,-1,-1,-1,-1,-1,-1,-1,-1,-1,-1,-1,-1],"split_conditions":[6E1,9.7333336E1,1.9083334E1,1.17E2,6.6E1,7.2E1,1E0,8.5E1,1.68E2,6.8E1,1.13E2,9.65E1,9.74E1,1E0,9.115385E1,-4.2569963E-3,1.6586644E-3,7.0448103E-3,-1.8219413E-2,-2.5204695E-3,-1.0355283E-2,1.6162058E-3,-4.054571E-3,5.513376E-3,1.3115909E-3,7.0704725E-3,-1.2512797E-3,4.6662823E-3,-1.912731E-2,-1.71482E-2,9.976417E-3],"split_indices":[0,20,17,3,12,7,37,18,6,7,6,20,10,67,23,0,0,0,0,0,0,0,0,0,0,0,0,0,0,0,0],"split_type":[0,0,0,0,0,0,0,0,0,0,0,0,0,0,0,0,0,0,0,0,0,0,0,0,0,0,0,0,0,0,0],"sum_hessian":[5.433355E4,2.6940914E4,2.7392639E4,9.658004E3,1.728291E4,1.9356127E4,8.0365103E3,7.847835E3,1.8101692E3,3.928707E3,1.3354203E4,1.0622296E4,8.733832E3,7.284067E3,7.524436E2,1.5953994E3,6.2524355E3,1.7862147E3,2.3954403E1,9.971122E2,2.931595E3,2.8949531E3,1.045925E4,2.618646E3,8.00365E3,3.950473E2,8.338785E3,7.2583994E3,2.5667511E1,8.137534E0,7.44306E2],"tree_param":{"num_deleted":"0","num_feature":"77","num_nodes":"31","size_leaf_vector":"1"}},{"base_weights":[9.849485E-3,4.0889817E-1,-9.254929E-2,5.9113455E-1,1.551798E-1,1.7393486E-1,-1.9768989E-1,2.5368464E-1,7.232996E-1,1.8618093E-1,-1.9398749E-2,2.671101E-1,-1.495193E-1,-1.1528839E-2,-3.2785758E-1,4.7041336E-3,-1.9820575E-3,6.267901E-3,9.757226E-3,6.705121E-4,6.400205E-3,3.9572673E-4,4.0309867E-3,-3.0448027E-3,5.5002677E-3,-2.4245004E-3,1.444547E-3,-4.9143443E-3,-1.1264883E-3],"categories":[],"categories_nodes":[],"categories_segments":[],"categories_sizes":[],"default_left":[1,1,0,0,0,1,1,0,1,1,0,0,1,1,0,0,0,0,0,0,0,0,0,0,0,0,0,0,0],"id":38,"left_children":[1,3,5,7,9,11,13,15,17,19,-1,21,23,25,27,-1,-1,-1,-1,-1,-1,-1,-1,-1,-1,-1,-1,-1,-1],"loss_changes":[2.2277717E3,5.1385095E2,1.2154733E3,2.8750464E2,3.0156848E2,3.7001874E2,7.53494E2,1.7948138E2,1.1046924E2,2.4755241E2,0E0,2.9440112E2,2.9745523E2,4.6145642E2,6.4366675E2,0E0,0E0,0E0,0E0,0E0,0E0,0E0,0E0,0E0,0E0,0E0,0E0,0E0,0E0],"parents":[2147483647,0,0,1,1,2,2,3,3,4,4,5,5,6,6,7,7,8,8,9,9,11,11,12,12,13,13,14,14],"right_children":[2,4,6,8,10,12,14,16,18,20,-1,22,24,26,28,-1,-1,-1,-1,-1,-1,-1,-1,-1,-1,-1,-1,-1,-1],"split_conditions":[9.6E1,6.95E1,9.74E1,8.8E1,1E0,8.6E1,6.9125E1,3E0,1.03E2,9.5E1,-1.9398749E-2,7.1E1,2.025E1,6.6E1,1.385E2,4.7041336E-3,-1.9820575E-3,6.267901E-3,9.757226E-3,6.705121E-4,6.400205E-3,3.9572673E-4,4.0309867E-3,-3.0448027E-3,5.5002677E-3,-2.4245004E-3,1.444547E-3,-4.9143443E-3,-1.1264883E-3],"split_indices":[5,26,20,3,40,7,26,1,3,12,0,12,17,12,23,0,0,0,0,0,0,0,0,0,0,0,0,0,0],"split_type":[0,0,0,0,0,0,0,0,0,0,0,0,0,0,0,0,0,0,0,0,0,0,0,0,0,0,0,0,0],"sum_hessian":[5.4507676E4,1.1131588E4,4.337609E4,6.474556E3,4.6570312E3,1.2268965E4,3.1107125E4,1.8259252E3,4.648631E3,4.5913906E3,6.5640564E1,9.527797E3,2.7411677E3,1.2804483E4,1.8302643E4,1.235503E3,5.904221E2,3.3707942E3,1.2778367E3,3.6403289E3,9.5106195E2,3.5678948E3,5.959902E3,2.2461643E3,4.950034E2,5.164361E3,7.640122E3,1.039463E4,7.908013E3],"tree_param":{"num_deleted":"0","num_feature":"77","num_nodes":"29","size_leaf_vector":"1"}},{"base_weights":[-1.26776835E-2,-1.6687192E-1,2.917302E-1,1.4072084E-1,-2.9701728E-1,4.2739883E-1,-8.328704E-4,3.7805977E-1,2.3473592E-2,4.1770905E-2,-3.6441323E-1,3.231042E-1,6.1586666E-1,2.0591517E-1,-4.1922113E-1,7.35292E-3,2.0621296E-3,-2.4800174E-4,7.5703524E-3,-1.1868261E-3,5.842457E-3,-4.3824133E-3,-6.5270683E-4,5.546806E-3,1.8617668E-3,-2.103758E-3,6.7084813E-3,-2.9485363E-3,3.2043569E-3,-6.154606E-3,2.9603376E-3],"categories":[],"categories_nodes":[],"categories_segments":[],"categories_sizes":[],"default_left":[0,0,1,0,1,0,0,1,1,1,1,1,0,1,0,0,0,0,0,0,0,0,0,0,0,0,0,0,0,0,0],"id":39,"left_children":[1,3,5,7,9,11,13,15,17,19,21,23,25,27,29,-1,-1,-1,-1,-1,-1,-1,-1,-1,-1,-1,-1,-1,-1,-1,-1],"loss_changes":[2.525399E3,1.4300464E3,7.183982E2,2.9505557E2,5.734751E2,2.4162012E2,4.9606857E2,2.1411096E2,2.5262236E2,3.6306E2,4.618689E2,2.516062E2,2.0052026E2,2.2014172E2,2.6701004E2,0E0,0E0,0E0,0E0,0E0,0E0,0E0,0E0,0E0,0E0,0E0,0E0,0E0,0E0,0E0,0E0],"parents":[2147483647,0,0,1,1,2,2,3,3,4,4,5,5,6,6,7,7,8,8,9,9,10,10,11,11,12,12,13,13,14,14],"right_children":[2,4,6,8,10,12,14,16,18,20,22,24,26,28,30,-1,-1,-1,-1,-1,-1,-1,-1,-1,-1,-1,-1,-1,-1,-1,-1],"split_conditions":[1.8142857E1,9.7333336E1,3E0,9.5666664E1,1.11E2,9.5E1,7.6E1,1.18E2,9.9E1,9.2E1,1.494E2,5.3E1,8.6E1,7.25E1,1.64E2,7.35292E-3,2.0621296E-3,-2.4800174E-4,7.5703524E-3,-1.1868261E-3,5.842457E-3,-4.3824133E-3,-6.5270683E-4,5.546806E-3,1.8617668E-3,-2.103758E-3,6.7084813E-3,-2.9485363E-3,3.2043569E-3,-6.154606E-3,2.9603376E-3],"split_indices":[17,20,1,20,6,12,24,6,9,14,23,24,3,14,6,0,0,0,0,0,0,0,0,0,0,0,0,0,0,0,0],"split_type":[0,0,0,0,0,0,0,0,0,0,0,0,0,0,0,0,0,0,0,0,0,0,0,0,0,0,0,0,0,0,0],"sum_hessian":[5.3801516E4,3.5714793E4,1.808672E4,1.0616149E4,2.5098645E4,1.235835E4,5.7283716E3,3.5060378E3,7.1101113E3,4.162148E3,2.0936496E4,7.9626826E3,4.3956675E3,3.8329377E3,1.8954342E3,1.134754E3,2.371284E3,6.6716377E3,4.3847375E2,3.211861E3,9.502871E2,1.678877E4,4.1477275E3,2.953767E3,5.0089155E3,2.7276776E2,4.1228994E3,7.111929E2,3.1217446E3,1.4886742E3,4.0676E2],"tree_param":{"num_deleted":"0","num_feature":"77","num_nodes":"31","size_leaf_vector":"1"}},{"base_weights":[-1.1456971E-2,-1.7011167E-1,3.0023456E-1,-3.216834E-1,5.8851227E-2,1.204558E-1,4.798726E-1,2.4516772E-1,-3.966183E-1,6.7967635E-1,1.5742544E-2,5.5255425E-1,-1.5565111E-2,-1.0256768E0,4.9400225E-1,3.3289744E-3,-7.3040957E-3,-4.654592E-3,3.054489E-3,7.6195947E-3,-1.8995304E-2,-1.3341953E-3,1.9404714E-3,-6.6803233E-3,5.856334E-3,3.3214588E-3,-1.9367923E-3,8.45987E-3,-1.9670375E-2,3.409201E-3,6.195659E-3],"categories":[],"categories_nodes":[],"categories_segments":[],"categories_sizes":[],"default_left":[0,1,1,1,0,1,0,0,0,0,1,0,0,0,0,0,0,0,0,0,0,0,0,0,0,0,0,0,0,0,0],"id":40,"left_children":[1,3,5,7,9,11,13,15,17,19,21,23,25,27,29,-1,-1,-1,-1,-1,-1,-1,-1,-1,-1,-1,-1,-1,-1,-1,-1],"loss_changes":[2.6640142E3,1.2393691E3,5.8609973E2,9.129773E2,3.7985916E2,5.3464355E2,1.937522E2,2.1476741E2,9.1771875E2,1.973771E2,3.5385617E2,8.861804E1,4.2804272E2,1.5326958E2,1.7166602E2,0E0,0E0,0E0,0E0,0E0,0E0,0E0,0E0,0E0,0E0,0E0,0E0,0E0,0E0,0E0,0E0],"parents":[2147483647,0,0,1,1,2,2,3,3,4,4,5,5,6,6,7,7,8,8,9,9,10,10,11,11,12,12,13,13,14,14],"right_children":[2,4,6,8,10,12,14,16,18,20,22,24,26,28,30,-1,-1,-1,-1,-1,-1,-1,-1,-1,-1,-1,-1,-1,-1,-1,-1],"split_conditions":[1.8142857E1,6.3E1,6.5E1,5.2E1,9.3E1,9.5E1,6E1,1.8E1,1E0,8.8E1,7.2E1,2.4E1,6.96E1,1.21E2,2.025E1,3.3289744E-3,-7.3040957E-3,-4.654592E-3,3.054489E-3,7.6195947E-3,-1.8995304E-2,-1.3341953E-3,1.9404714E-3,-6.6803233E-3,5.856334E-3,3.3214588E-3,-1.9367923E-3,8.45987E-3,-1.9670375E-2,3.409201E-3,6.195659E-3],"split_indices":[17,0,0,24,18,5,13,17,49,0,12,0,26,22,17,0,0,0,0,0,0,0,0,0,0,0,0,0,0,0,0],"split_type":[0,0,0,0,0,0,0,0,0,0,0,0,0,0,0,0,0,0,0,0,0,0,0,0,0,0,0,0,0,0,0],"sum_hessian":[5.387001E4,3.5701594E4,1.8168418E4,2.1483338E4,1.4218254E4,9.085105E3,9.0833125E3,2.506305E3,1.8977033E4,9.19756E2,1.3298497E4,2.1754783E3,6.909627E3,8.246533E1,9.000848E3,2.3016677E3,2.0463715E2,1.7284324E4,1.6927085E3,8.9306195E2,2.6694046E1,7.2382114E3,6.060286E3,5.5591526E1,2.1198867E3,2.3380283E3,4.5715986E3,2.7308815E1,5.5156517E1,4.062908E3,4.9379395E3],"tree_param":{"num_deleted":"0","num_feature":"77","num_nodes":"31","size_leaf_vector":"1"}},{"base_weights":[1.308238E-2,-1.2664847E-1,2.9173362E-1,1.5022267E-1,-2.5421748E-1,4.1977337E-1,1.9570265E-2,2.6203513E-1,-3.091054E-1,9.72026E-2,-3.2569674E-1,5.057591E-1,1.11614086E-1,2.30609E-1,-4.3770543E-1,4.755087E-3,1.1222115E-3,3.2731865E-3,-6.2358775E-3,-7.7154423E-4,6.3523194E-3,-4.438931E-3,-1.1179086E-3,4.4605094E-3,8.434902E-3,1.5094368E-3,-1.3542126E-2,4.481548E-3,-3.6386625E-4,-6.723126E-3,3.029997E-3],"categories":[],"categories_nodes":[],"categories_segments":[],"categories_sizes":[],"default_left":[0,0,1,1,1,1,0,1,0,1,0,0,1,1,0,0,0,0,0,0,0,0,0,0,0,0,0,0,0,0,0],"id":41,"left_children":[1,3,5,7,9,11,13,15,17,19,21,23,25,27,29,-1,-1,-1,-1,-1,-1,-1,-1,-1,-1,-1,-1,-1,-1,-1,-1],"loss_changes":[2.1223113E3,1.2822329E3,6.339574E2,5.8806555E2,6.245571E2,3.2725708E2,5.625238E2,2.9384125E2,4.4909485E2,3.9462848E2,5.2154663E2,1.930503E2,1.5517807E2,2.3227043E2,3.2050604E2,0E0,0E0,0E0,0E0,0E0,0E0,0E0,0E0,0E0,0E0,0E0,0E0,0E0,0E0,0E0,0E0],"parents":[2147483647,0,0,1,1,2,2,3,3,4,4,5,5,6,6,7,7,8,8,9,9,10,10,11,11,12,12,13,13,14,14],"right_children":[2,4,6,8,10,12,14,16,18,20,22,24,26,28,30,-1,-1,-1,-1,-1,-1,-1,-1,-1,-1,-1,-1,-1,-1,-1,-1],"split_conditions":[1.8142857E1,9.744444E1,3E0,8.6E1,1.11E2,8.3E1,7.7E1,5.8E1,9.5666664E1,9.1E1,1.32E2,1E0,1.62E2,9.76E1,1.63E2,4.755087E-3,1.1222115E-3,3.2731865E-3,-6.2358775E-3,-7.7154423E-4,6.3523194E-3,-4.438931E-3,-1.1179086E-3,4.4605094E-3,8.434902E-3,1.5094368E-3,-1.3542126E-2,4.481548E-3,-3.6386625E-4,-6.723126E-3,3.029997E-3],"split_indices":[17,20,1,7,6,7,24,24,20,14,21,76,21,20,6,0,0,0,0,0,0,0,0,0,0,0,0,0,0,0,0],"split_type":[0,0,0,0,0,0,0,0,0,0,0,0,0,0,0,0,0,0,0,0,0,0,0,0,0,0,0,0,0,0,0],"sum_hessian":[5.4499305E4,3.6296016E4,1.8203291E4,1.1445948E4,2.4850066E4,1.2376148E4,5.827142E3,9.207611E3,2.2383372E3,4.1977207E3,2.0652346E4,9.672658E3,2.7034902E3,3.9892356E3,1.8379064E3,3.7925256E3,5.4150854E3,7.39181E2,1.4991562E3,3.170216E3,1.0275046E3,1.3297707E4,7.354639E3,8.225975E3,1.4466837E3,2.63526E3,6.82304E1,2.1994944E3,1.7897412E3,1.3969714E3,4.4093494E2],"tree_param":{"num_deleted":"0","num_feature":"77","num_nodes":"31","size_leaf_vector":"1"}},{"base_weights":[1.36127705E-2,-1.6739559E-1,2.3879547E-1,1.422884E-1,-3.3865997E-1,6.127829E-2,3.8942122E-1,6.270579E-3,4.1490883E-1,-7.8874797E-1,-2.049359E-1,8.47688E-1,2.9325853E-3,6.172034E-1,3.1783903E-1,-4.2522196E-3,2.035513E-3,4.627945E-3,-1.1543684E-2,1.9498852E-3,-8.591224E-3,1.3367499E-3,-3.5965024E-3,9.0931944E-4,1.1456296E-2,-2.4807502E-3,2.3203786E-3,6.3044047E-3,-1.7659046E-2,2.7318227E-3,8.590369E-3],"categories":[],"categories_nodes":[],"categories_segments":[],"categories_sizes":[],"default_left":[1,1,0,0,1,0,0,1,1,1,1,1,0,0,1,0,0,0,0,0,0,0,0,0,0,0,0,0,0,0,0],"id":42,"left_children":[1,3,5,7,9,11,13,15,17,19,21,23,25,27,29,-1,-1,-1,-1,-1,-1,-1,-1,-1,-1,-1,-1,-1,-1,-1,-1],"loss_changes":[2.225888E3,1.6057993E3,6.5024036E2,3.992625E2,1.1719939E3,5.1197247E2,2.1328577E2,6.124649E2,2.69797E2,3.0995923E2,7.878929E2,1.7233856E2,5.9863055E2,1.00201294E2,2.406228E2,0E0,0E0,0E0,0E0,0E0,0E0,0E0,0E0,0E0,0E0,0E0,0E0,0E0,0E0,0E0,0E0],"parents":[2147483647,0,0,1,1,2,2,3,3,4,4,5,5,6,6,7,7,8,8,9,9,10,10,11,11,12,12,13,13,14,14],"right_children":[2,4,6,8,10,12,14,16,18,20,22,24,26,28,30,-1,-1,-1,-1,-1,-1,-1,-1,-1,-1,-1,-1,-1,-1,-1,-1],"split_conditions":[6.3E1,9.7333336E1,7.2E1,1.9E1,6.6E1,6.4E1,1.25E2,7.9E1,9.4E1,5.5666668E1,6.9E1,7.0666664E1,7.7E1,1E0,1.03E2,-4.2522196E-3,2.035513E-3,4.627945E-3,-1.1543684E-2,1.9498852E-3,-8.591224E-3,1.3367499E-3,-3.5965024E-3,9.0931944E-4,1.1456296E-2,-2.4807502E-3,2.3203786E-3,6.3044047E-3,-1.7659046E-2,2.7318227E-3,8.590369E-3],"split_indices":[0,20,12,4,12,0,22,13,26,26,26,26,0,67,12,0,0,0,0,0,0,0,0,0,0,0,0,0,0,0,0],"split_type":[0,0,0,0,0,0,0,0,0,0,0,0,0,0,0,0,0,0,0,0,0,0,0,0,0,0,0,0,0,0,0],"sum_hessian":[5.460397E4,3.026897E4,2.4335E4,1.0776738E4,1.9492232E4,1.1174709E4,1.3160291E4,7.193445E3,3.5832932E3,4.460803E3,1.503143E4,7.68764E2,1.0405945E4,3.1398242E3,1.0020467E4,2.2546636E3,4.9387812E3,3.4791753E3,1.0411779E2,2.9662668E2,4.1641763E3,4.712145E3,1.0319284E4,2.1885371E2,5.499103E2,4.9634556E3,5.4424893E3,3.1243604E3,1.5463882E1,9.261145E3,7.5932263E2],"tree_param":{"num_deleted":"0","num_feature":"77","num_nodes":"31","size_leaf_vector":"1"}},{"base_weights":[8.296288E-3,-2.064127E-1,2.1684752E-1,-4.318367E-1,5.1802047E-2,9.227417E-2,4.7982213E-1,1.8305539E-1,-5.285566E-1,4.286199E-1,-1.1325742E-1,1.6200121E-1,-2.8308386E-1,-1.913175E-2,4.8975918E-1,5.424128E-3,-2.2667644E-3,-5.816563E-3,9.0763933E-4,8.566497E-3,2.7893293E-3,4.766581E-3,-2.280973E-3,-7.7070246E-5,3.1444475E-3,-1.6674897E-4,-7.2754784E-3,4.9879327E-3,-1.9274987E-2],"categories":[],"categories_nodes":[],"categories_segments":[],"categories_sizes":[],"default_left":[1,0,0,1,0,1,0,1,0,1,1,1,1,0,0,0,0,0,0,0,0,0,0,0,0,0,0,0,0],"id":43,"left_children":[1,3,5,7,9,11,13,15,17,19,21,23,25,-1,27,-1,-1,-1,-1,-1,-1,-1,-1,-1,-1,-1,-1,-1,-1],"loss_changes":[2.4376519E3,1.5616144E3,9.040819E2,8.523013E2,7.779398E2,4.905832E2,2.1147656E2,2.8719095E2,4.0763403E2,2.4250433E2,5.888718E2,4.093867E2,3.467762E2,0E0,1.9353247E2,0E0,0E0,0E0,0E0,0E0,0E0,0E0,0E0,0E0,0E0,0E0,0E0,0E0,0E0],"parents":[2147483647,0,0,1,1,2,2,3,3,4,4,5,5,6,6,7,7,8,8,9,9,10,10,11,11,12,12,14,14],"right_children":[2,4,6,8,10,12,14,16,18,20,22,24,26,-1,28,-1,-1,-1,-1,-1,-1,-1,-1,-1,-1,-1,-1,-1,-1],"split_conditions":[6E1,8E1,1.9E1,5.2E1,9.725E1,8.6E1,5.4E1,6.3E1,1E0,1.1125E2,5.7E1,7E1,9.82E1,-1.913175E-2,1E0,5.424128E-3,-2.2667644E-3,-5.816563E-3,9.0763933E-4,8.566497E-3,2.7893293E-3,4.766581E-3,-2.280973E-3,-7.7070246E-5,3.1444475E-3,-1.6674897E-4,-7.2754784E-3,4.9879327E-3,-1.9274987E-2],"split_indices":[0,12,17,24,20,7,14,7,49,23,7,12,20,0,67,0,0,0,0,0,0,0,0,0,0,0,0,0,0],"split_type":[0,0,0,0,0,0,0,0,0,0,0,0,0,0,0,0,0,0,0,0,0,0,0,0,0,0,0,0,0],"sum_hessian":[5.4434586E4,2.6818973E4,2.7615613E4,1.4320001E4,1.2498973E4,1.874327E4,8.872345E3,1.9446785E3,1.2375322E4,3.8081436E3,8.690829E3,1.5810153E4,2.9331157E3,3.469028E1,8.837654E3,1.0369814E3,9.07697E2,1.1399666E4,9.7565576E2,9.825153E2,2.8256282E3,1.4137245E3,7.277104E3,7.479224E3,8.33093E3,1.8365963E3,1.0965194E3,8.806741E3,3.0912704E1],"tree_param":{"num_deleted":"0","num_feature":"77","num_nodes":"29","size_leaf_vector":"1"}},{"base_weights":[-1.1566048E-2,1.9271164E-1,-1.9314076E-1,4.3839693E-1,4.235134E-2,-2.9081194E-2,-3.7603438E-1,5.529639E-1,2.0689869E-1,-7.701068E-2,3.396706E-1,-1.041721E-1,4.628784E-1,-4.7438887E-1,-7.356657E-2,5.622706E-3,-1.8927846E-2,-3.260549E-3,3.4301132E-3,-1.5181156E-3,4.3949927E-3,9.086828E-3,2.7473622E-3,2.33975E-3,-2.0020304E-3,4.9314327E-3,-1.9294793E-2,-5.7019554E-3,-2.8327192E-4,1.12913335E-2,-1.5554366E-3],"categories":[],"categories_nodes":[],"categories_segments":[],"categories_sizes":[],"default_left":[1,1,1,1,1,1,1,0,1,0,1,1,1,0,1,0,0,0,0,0,0,0,0,0,0,0,0,0,0,0,0],"id":44,"left_children":[1,3,5,7,9,11,13,15,17,19,21,23,25,27,29,-1,-1,-1,-1,-1,-1,-1,-1,-1,-1,-1,-1,-1,-1,-1,-1],"loss_changes":[1.9963538E3,9.3502606E2,8.546387E2,2.5394238E2,5.5802185E2,5.5486145E2,4.001615E2,1.4706201E2,2.3151906E2,4.3304883E2,1.6475134E2,4.2351825E2,1.4444559E2,4.3370654E2,3.257866E2,0E0,0E0,0E0,0E0,0E0,0E0,0E0,0E0,0E0,0E0,0E0,0E0,0E0,0E0,0E0,0E0],"parents":[2147483647,0,0,1,1,2,2,3,3,4,4,5,5,6,6,7,7,8,8,9,9,10,10,11,11,12,12,13,13,14,14],"right_children":[2,4,6,8,10,12,14,16,18,20,22,24,26,28,30,-1,-1,-1,-1,-1,-1,-1,-1,-1,-1,-1,-1,-1,-1,-1,-1],"split_conditions":[9.771429E1,6.7E1,7.6E1,3E0,2.1E1,2.4E1,9.0666664E1,1E0,6.1E1,1E0,9.225E1,5.8833332E1,1.011E2,1.69E2,9.4E1,5.622706E-3,-1.8927846E-2,-3.260549E-3,3.4301132E-3,-1.5181156E-3,4.3949927E-3,9.086828E-3,2.7473622E-3,2.33975E-3,-2.0020304E-3,4.9314327E-3,-1.9294793E-2,-5.7019554E-3,-2.8327192E-4,1.12913335E-2,-1.5554366E-3],"split_indices":[20,7,7,1,16,16,14,67,12,65,20,26,2,22,5,0,0,0,0,0,0,0,0,0,0,0,0,0,0,0,0],"split_type":[0,0,0,0,0,0,0,0,0,0,0,0,0,0,0,0,0,0,0,0,0,0,0,0,0,0,0,0,0,0,0],"sum_hessian":[5.3818152E4,2.5323137E4,2.8495014E4,9.610051E3,1.5713086E4,1.5025025E4,1.3469989E4,6.4238384E3,3.186213E3,1.1210592E4,4.502494E3,1.3038487E4,1.9865377E3,1.0161347E4,3.3086418E3,6.401428E3,2.240995E1,6.4613025E2,2.5400828E3,9.795375E3,1.4152164E3,4.5694574E2,4.0455486E3,2.880897E3,1.0157591E4,1.9637014E3,2.2836369E1,8.362436E3,1.7989119E3,2.0872058E2,3.0999214E3],"tree_param":{"num_deleted":"0","num_feature":"77","num_nodes":"31","size_leaf_vector":"1"}},{"base_weights":[7.7948496E-3,3.0470434E-1,-1.10313E-1,4.2615622E-1,5.9869036E-2,-4.1190726E-1,4.9042072E-2,8.297062E-1,3.535887E-1,-1.6798392E-1,4.3328926E-1,-2.9340254E-2,-5.3976595E-1,3.2644078E-1,-5.3624094E-2,8.606448E-3,-1.8129168E-2,2.0686872E-3,5.0684744E-3,-3.3884519E-3,1.8901087E-3,4.759791E-3,-1.8821575E-2,-4.493605E-3,2.7463238E-3,-6.611457E-3,-9.54457E-4,1.3676636E-3,5.2921395E-3,-1.6006514E-3,2.5974703E-3],"categories":[],"categories_nodes":[],"categories_segments":[],"categories_sizes":[],"default_left":[1,1,1,0,1,1,1,1,0,0,0,1,0,1,0,0,0,0,0,0,0,0,0,0,0,0,0,0,0,0,0],"id":45,"left_children":[1,3,5,7,9,11,13,15,17,19,21,23,25,27,29,-1,-1,-1,-1,-1,-1,-1,-1,-1,-1,-1,-1,-1,-1,-1,-1],"loss_changes":[1.9037521E3,4.588949E2,1.8667147E3,3.0057764E2,4.3673224E2,6.5618335E2,7.2389404E2,1.3053137E2,1.9597461E2,1.9452534E2,1.9269138E2,4.3036673E2,5.417583E2,2.6326697E2,6.185009E2,0E0,0E0,0E0,0E0,0E0,0E0,0E0,0E0,0E0,0E0,0E0,0E0,0E0,0E0,0E0,0E0],"parents":[2147483647,0,0,1,1,2,2,3,3,4,4,5,5,6,6,7,7,8,8,9,9,10,10,11,11,12,12,13,13,14,14],"right_children":[2,4,6,8,10,12,14,16,18,20,22,24,26,28,30,-1,-1,-1,-1,-1,-1,-1,-1,-1,-1,-1,-1,-1,-1,-1,-1],"split_conditions":[9.7E1,3E0,5E1,9.3E1,8.2E1,1.17E2,6.222222E1,8.4E1,1.9E1,7.5E1,1.65E2,3.6E1,1.4633333E2,7E1,1.84E1,8.606448E-3,-1.8129168E-2,2.0686872E-3,5.0684744E-3,-3.3884519E-3,1.8901087E-3,4.759791E-3,-1.8821575E-2,-4.493605E-3,2.7463238E-3,-6.611457E-3,-9.54457E-4,1.3676636E-3,5.2921395E-3,-1.6006514E-3,2.5974703E-3],"split_indices":[5,1,0,5,12,6,26,24,17,0,23,0,23,12,17,0,0,0,0,0,0,0,0,0,0,0,0,0,0,0,0],"split_type":[0,0,0,0,0,0,0,0,0,0,0,0,0,0,0,0,0,0,0,0,0,0,0,0,0,0,0,0,0,0,0],"sum_hessian":[5.4279E4,1.5448518E4,3.883048E4,1.0322446E4,5.126071E3,1.3425183E4,2.5405299E4,1.5680167E3,8.75443E3,3.1825625E3,1.9435085E3,3.3655056E3,1.0059677E4,6.864136E3,1.8541162E4,1.5515786E3,1.6438108E1,4.478362E3,4.2760684E3,